tree
version=v3
num_class=2
num_tree_per_iteration=2
label_index=0
max_feature_idx=17
objective=multiclass num_class:2
feature_names=Chr Start End Ref Alt SIFT_score Polyphen2_HDIV_score Polyphen2_HVAR_score LRT_score MutationTaster_score MutationAssessor_score FATHMM_score RadialSVM_score LR_score VEST3_score CADD_phred A_Ref A_Alt
feature_infos=-1:2:1:5:0:4:3 [196229:180651184] [196229:180651184] -1:1:2:0:3 -1:3:2:1:0 [0:1] [0:1] [0:1] [0:0.99900000000000011] [0:1] [-2.7050000000000001:5.0449999999999999] [-8.8800000000000008:8.7799999999999994] [-1.246:1.179] [0:0.99900000000000011] [0.0069999999999999993:0.99900000000000011] [0:38] -1:0:14:12:16:2:15:18:3:5:9:7:11:10:13:8:21:1:6:4:19:17 -1:6:13:17:18:10:15:16:1:7:12:8:14:4:5:9:11:3:21:2:0
tree_sizes=3365 3299 3417 3425 3395 3407 3403 3411 3378 3390 3416 3428 3399 3407

Tree=0
num_leaves=31
num_cat=1
split_feature=13 0 11 14 1 10 10 11 1 14 14 8 15 13 7 10 1 8 12 1 7 12 1 5 5 15 1 5 1 5
split_gain=273.412 33.3396 19.361 28.633 12.4276 10.9331 10.7978 2.764 3.73404 2.5844 2.39804 3.61298 2.24584 2.00771 1.68631 4.02915 1.6613 1.49722 1.36659 0.689335 0.537779 0.563109 0.30634 0.627982 0.14594 0.390584 0.0462389 0.0672223 7.10543e-15 7.10543e-15
threshold=0.59850000000000014 0 -0.6349999999999999 0.65450000000000019 37288434.000000007 0.57000000000000017 1.0625000000000002 -2.7449999999999997 100947045.50000001 0.95400000000000007 0.41150000000000009 0.21100000000000002 20.950000000000003 0.41750000000000004 0.98650000000000004 1.6425000000000003 117292946.50000001 1.0000000180025095e-35 -0.23199999999999998 42796190.500000007 0.98050000000000004 0.97300000000000009 77329609.500000015 0.03500000000000001 0.49500000000000005 7.5620000000000012 18660254.500000004 0.115 142860795.00000003 0.015000000000000001
decision_type=10 9 8 8 2 10 8 10 2 10 10 8 10 10 10 10 2 8 10 2 10 10 2 8 10 10 2 10 2 10
left_child=2 4 3 13 -2 -3 -5 12 -9 16 24 14 -7 19 22 -16 17 20 -17 -1 29 -22 23 -12 26 -26 27 -4 -28 -6
right_child=1 5 10 6 9 7 -8 8 -10 -11 11 -13 -14 -15 15 18 -18 -19 -20 -21 21 -23 -24 -25 25 -27 28 -29 -30 -31
leaf_value=-0.32425878930514962 -0.35799218046526005 -0.40639226343411416 -0.31564210786751273 -0.43059230491854117 -0.43059230491854117 -0.30959209749640598 -0.35888847829801662 -0.37441363718683551 -0.33159213520952147 -0.43059230491854117 -0.32425878930514962 -0.34831216387148922 -0.34488382466119538 -0.33984214935193979 -0.35568741460960035 -0.30959209749640598 -0.40034225306300736 -0.40034225306300736 -0.33379213898083304 -0.30959209749640598 -0.40954879058425675 -0.4261108157547584 -0.30959209749640598 -0.30959209749640598 -0.30959209749640598 -0.3199635438468747 -0.30959209749640598 -0.30959209749640598 -0.30959209749640598 -0.43059230491854117
leaf_weight=13.636340260505674 8.2644486427307111 8.2644486427307111 8.2644486427307147 9.9173383712768537 8.2644486427307147 8.2644486427307111 11.157005667686464 11.570228099823003 9.0908935070037824 45.867689967155457 13.636340260505678 10.330560803413389 9.9173383712768537 11.570228099822996 8.6776710748672468 19.834676742553711 14.876007556915281 8.2644486427307111 8.2644486427307147 19.421454310417175 9.5041159391403216 11.157005667686461 37.603241324424744 15.702452421188353 24.380123496055603 14.462785124778746 92.97504723072052 10.330560803413389 21.074344038963318 8.2644486427307111
leaf_count=33 20 20 20 24 20 20 27 28 22 111 33 25 24 28 21 48 36 20 20 47 23 27 91 38 59 35 225 25 51 20
internal_value=-0.344888 -0.398718 -0.320126 -0.344598 -0.411253 -0.352546 -0.392631 -0.34306 -0.355572 -0.421647 -0.314495 -0.320114 -0.328842 -0.321916 -0.317305 -0.325907 -0.414846 -0.419592 -0.31671 -0.315642 -0.42387 -0.418492 -0.31258 -0.316409 -0.310758 -0.313454 -0.309969 -0.312281 -0.309592 -0.430592
internal_weight=0 161.57 351.239 65.7024 114.463 47.1074 21.0743 38.8429 20.6611 106.198 285.537 114.049 18.1818 44.628 103.719 36.7768 60.3305 45.4545 28.0991 33.0578 37.19 20.6611 66.942 29.3388 171.487 38.8429 132.644 18.595 114.049 16.5289
internal_count=1241 391 850 159 277 114 51 94 50 257 691 276 44 108 251 89 146 110 68 80 90 50 162 71 415 94 321 45 276 40
cat_boundaries=0 1
cat_threshold=36
is_linear=0
shrinkage=1


Tree=1
num_leaves=31
num_cat=1
split_feature=13 0 11 14 1 10 10 11 1 14 14 8 15 13 7 10 1 8 12 1 7 12 1 5 5 15 1 5 1 5
split_gain=273.412 33.3396 19.361 28.633 12.4276 10.9331 10.7978 2.764 3.73404 2.5844 2.39804 3.61298 2.24584 2.00771 1.68631 4.02915 1.6613 1.49722 1.36659 0.689335 0.537779 0.563109 0.30634 0.627982 0.14594 0.390584 0.0462389 0.0672223 7.10543e-15 7.10543e-15
threshold=0.59850000000000014 0 -0.6349999999999999 0.65450000000000019 37288434.000000007 0.57000000000000017 1.0625000000000002 -2.7449999999999997 100947045.50000001 0.95400000000000007 0.41150000000000009 0.21100000000000002 20.950000000000003 0.41750000000000004 0.98650000000000004 1.6425000000000003 117292946.50000001 1.0000000180025095e-35 -0.23199999999999998 42796190.500000007 0.98050000000000004 0.97300000000000009 77329609.500000015 0.03500000000000001 0.49500000000000005 7.5620000000000012 18660254.500000004 0.115 142860795.00000003 0.015000000000000001
decision_type=10 9 8 8 2 10 8 10 2 10 10 8 10 10 10 10 2 8 10 2 10 10 2 8 10 10 2 10 2 10
left_child=2 4 3 13 -2 -3 -5 12 -9 16 24 14 -7 19 22 -16 17 20 -17 -1 29 -22 23 -12 26 -26 27 -4 -28 -6
right_child=1 5 10 6 9 7 -8 8 -10 -11 11 -13 -14 -15 15 18 -18 -19 -20 -21 21 -23 -24 -25 25 -27 28 -29 -30 -31
leaf_value=-1.2526576715931166 -1.218924280433006 -1.170524197464152 -1.2612743530307535 -1.146324155979725 -1.146324155979725 -1.2673243634018603 -1.2180279826002496 -1.2025028237114306 -1.2453243256887447 -1.146324155979725 -1.2526576715931166 -1.228604297026777 -1.2320326362370708 -1.2370743115463265 -1.2212290462886659 -1.2673243634018603 -1.1765742078352588 -1.1765742078352588 -1.2431243219174333 -1.2673243634018603 -1.1673676703140095 -1.1508056451435078 -1.2673243634018603 -1.2673243634018603 -1.2673243634018603 -1.2569529170513916 -1.2673243634018603 -1.2673243634018603 -1.2673243634018603 -1.146324155979725
leaf_weight=13.636340260505674 8.2644486427307111 8.2644486427307111 8.2644486427307147 9.9173383712768537 8.2644486427307147 8.2644486427307111 11.157005667686464 11.570228099823003 9.0908935070037824 45.867689967155457 13.636340260505678 10.330560803413389 9.9173383712768537 11.570228099822996 8.6776710748672468 19.834676742553711 14.876007556915281 8.2644486427307111 8.2644486427307147 19.421454310417175 9.5041159391403216 11.157005667686461 37.603241324424744 15.702452421188353 24.380123496055603 14.462785124778746 92.97504723072052 10.330560803413389 21.074344038963318 8.2644486427307111
leaf_count=33 20 20 20 24 20 20 27 28 22 111 33 25 24 28 21 48 36 20 20 47 23 27 91 38 59 35 225 25 51 20
internal_value=-1.23203 -1.1782 -1.25679 -1.23232 -1.16566 -1.22437 -1.18429 -1.23386 -1.22134 -1.15527 -1.26242 -1.2568 -1.24807 -1.255 -1.25961 -1.25101 -1.16207 -1.15732 -1.26021 -1.26127 -1.15305 -1.15842 -1.26434 -1.26051 -1.26616 -1.26346 -1.26695 -1.26464 -1.26732 -1.14632
internal_weight=0 161.57 351.239 65.7024 114.463 47.1074 21.0743 38.8429 20.6611 106.198 285.537 114.049 18.1818 44.628 103.719 36.7768 60.3305 45.4545 28.0991 33.0578 37.19 20.6611 66.942 29.3388 171.487 38.8429 132.644 18.595 114.049 16.5289
internal_count=1241 391 850 159 277 114 51 94 50 257 691 276 44 108 251 89 146 110 68 80 90 50 162 71 415 94 321 45 276 40
cat_boundaries=0 1
cat_threshold=36
is_linear=0
shrinkage=1


Tree=2
num_leaves=31
num_cat=1
split_feature=13 0 10 11 14 1 10 1 8 14 8 14 14 1 7 10 1 12 7 10 1 1 5 5 15 1 10 12 5 13
split_gain=241.744 42.5675 11.9211 10.2789 19.9117 9.32518 7.50015 3.39518 3.39496 1.89609 2.87626 1.80611 1.64529 2.66944 1.33453 2.88503 0.803582 0.74433 0.682257 1.17564 0.422209 0.267111 0.476166 0.143896 0.382672 0.0457415 0.0701768 0.00213697 0.00211368 5.95065e-05
threshold=0.50050000000000006 0 4.4800000000000013 -0.6349999999999999 0.48650000000000004 37288434.000000007 1.0625000000000002 37796112.000000007 0.0045000000000000014 0.41150000000000009 0.21100000000000002 0.81850000000000012 0.95400000000000007 117292946.50000001 0.97450000000000014 1.6425000000000003 111041336.50000001 -0.41449999999999992 0.96450000000000014 2.1500000000000008 42796190.500000007 66943583.000000007 0.03500000000000001 0.49500000000000005 7.5620000000000012 18660254.500000004 1.1050000000000002 0.78700000000000014 0.055000000000000007 0.21450000000000002
decision_type=10 9 8 8 8 2 10 2 8 10 8 10 10 2 10 10 2 10 10 10 2 2 8 10 10 2 8 10 10 10
left_child=3 5 7 4 20 -2 -6 -3 12 23 14 16 13 18 21 -16 -9 -17 28 -20 -1 22 -11 25 -25 26 -5 -14 -7 -22
right_child=1 2 -4 9 6 8 -8 11 -10 10 -12 -13 27 -15 15 17 -18 -19 19 -21 29 -23 -24 24 -26 -27 -28 -29 -30 -31
leaf_value=0.022993501365109525 -0.012312125588609203 -0.01291112568819772 -0.057714767028673231 0.028394807978224634 -0.063876978916108593 -0.07638259476565365 -0.003115651537435682 0.014994167136836488 -0.040524476081314389 0.01948702131265434 -0.0013550441269206228 0.0011785097957201778 -0.076985811565075682 -0.045442975693350617 -0.0018002469223684675 0.034606902805412489 0.035173597168402258 0.016372895935640171 -0.049551937840668497 -0.071962337745643895 0.034594052462683177 0.03460014131386125 0.034594052462683191 0.034594052462683191 0.024200657884627622 0.034594052462683191 0.034664280113396992 -0.076142081251064225 -0.077415031440139115 0.034768230574034484
leaf_weight=12.598079264163969 8.3539879322051984 15.455145001411436 8.5207273662090284 8.0275364220142347 9.9453974664211291 11.448766291141512 10.378771662712095 9.8789122402668017 11.083993703126906 9.7449259757995623 9.5311783254146558 13.199719458818434 9.207545191049574 14.650320410728453 10.764652013778685 18.048126012086868 9.8549904823303205 8.1125665307045001 8.6921613514423388 17.910905450582504 11.624312013387682 38.090043276548386 11.223473668098448 23.64946237206459 14.158313870429991 110.23054495453835 10.053267180919649 40.577635765075684 8.7432366013526899 8.4814563095569593
leaf_count=31 20 37 20 20 23 26 25 24 26 24 23 32 21 34 26 45 24 20 20 41 29 95 28 59 35 275 25 92 20 21
internal_value=0 -0.0451453 -0.00270511 0.0261527 0.00601706 -0.0589134 -0.0328485 0.00642245 -0.0669128 0.0300836 0.024842 0.0154953 -0.0695424 -0.0640686 0.0274434 0.0199873 0.0250717 0.0289524 -0.0698999 -0.0646401 0.0301705 0.0321052 0.0275732 0.0334129 0.0307019 0.0342117 0.0318808 -0.0762981 -0.0768296 0.0346675
internal_weight=0 187.578 56.9095 324.662 53.028 130.669 20.3242 48.3888 122.315 271.634 105.515 32.9336 111.231 61.4454 95.9838 36.9253 19.7339 26.1607 46.7951 26.6031 32.7038 59.0584 20.9684 166.119 37.8078 128.311 18.0808 49.7852 20.192 20.1058
internal_count=1241 437 137 804 129 300 48 117 280 675 261 80 254 141 238 91 48 65 107 61 81 147 52 414 94 320 45 113 46 50
cat_boundaries=0 1
cat_threshold=36
is_linear=0
shrinkage=0.05


Tree=3
num_leaves=31
num_cat=1
split_feature=13 0 10 11 14 1 10 1 8 14 8 14 14 1 7 10 1 12 7 10 1 1 5 5 15 1 10 12 5 13
split_gain=241.744 42.5675 11.9211 10.2789 19.9117 9.32518 7.50015 3.39518 3.39496 1.89609 2.87626 1.80611 1.64529 2.66944 1.33453 2.88503 0.803582 0.74433 0.682257 1.17564 0.422209 0.267111 0.476166 0.143896 0.382672 0.0457415 0.0701768 0.00213697 0.00211368 5.95065e-05
threshold=0.50050000000000006 0 4.4800000000000013 -0.6349999999999999 0.48650000000000004 37288434.000000007 1.0625000000000002 37796112.000000007 0.0045000000000000014 0.41150000000000009 0.21100000000000002 0.81850000000000012 0.95400000000000007 117292946.50000001 0.97450000000000014 1.6425000000000003 111041336.50000001 -0.41449999999999992 0.96450000000000014 2.1500000000000008 42796190.500000007 66943583.000000007 0.03500000000000001 0.49500000000000005 7.5620000000000012 18660254.500000004 1.1050000000000002 0.78700000000000014 0.055000000000000007 0.21450000000000002
decision_type=10 9 8 8 8 2 10 2 8 10 8 10 10 2 10 10 2 10 10 10 2 2 8 10 10 2 8 10 10 10
left_child=3 5 7 4 20 -2 -6 -3 12 23 14 16 13 18 21 -16 -9 -17 28 -20 -1 22 -11 25 -25 26 -5 -14 -7 -22
right_child=1 2 -4 9 6 8 -8 11 -10 10 -12 -13 27 -15 15 17 -18 -19 19 -21 29 -23 -24 24 -26 -27 -28 -29 -30 -31
leaf_value=-0.022993501365109525 0.012312125588609203 0.01291112568819772 0.057714767028673231 -0.028394807978224634 0.063876978916108593 0.07638259476565365 0.003115651537435682 -0.014994167136836488 0.040524476081314389 -0.01948702131265434 0.0013550441269206228 -0.0011785097957201778 0.076985811565075682 0.045442975693350617 0.0018002469223684675 -0.034606902805412489 -0.035173597168402258 -0.016372895935640171 0.049551937840668497 0.071962337745643895 -0.034594052462683177 -0.03460014131386125 -0.034594052462683191 -0.034594052462683191 -0.024200657884627622 -0.034594052462683191 -0.034664280113396992 0.076142081251064225 0.077415031440139115 -0.034768230574034484
leaf_weight=12.598079264163969 8.3539879322051984 15.455145001411436 8.5207273662090284 8.0275364220142347 9.9453974664211291 11.448766291141512 10.378771662712095 9.8789122402668017 11.083993703126906 9.7449259757995623 9.5311783254146558 13.199719458818434 9.207545191049574 14.650320410728453 10.764652013778685 18.048126012086868 9.8549904823303205 8.1125665307045001 8.6921613514423388 17.910905450582504 11.624312013387682 38.090043276548386 11.223473668098448 23.64946237206459 14.158313870429991 110.23054495453835 10.053267180919649 40.577635765075684 8.7432366013526899 8.4814563095569593
leaf_count=31 20 37 20 20 23 26 25 24 26 24 23 32 21 34 26 45 24 20 20 41 29 95 28 59 35 275 25 92 20 21
internal_value=0 0.0451453 0.00270511 -0.0261527 -0.00601706 0.0589134 0.0328485 -0.00642245 0.0669128 -0.0300836 -0.024842 -0.0154953 0.0695424 0.0640686 -0.0274434 -0.0199873 -0.0250717 -0.0289524 0.0698999 0.0646401 -0.0301705 -0.0321052 -0.0275732 -0.0334129 -0.0307019 -0.0342117 -0.0318808 0.0762981 0.0768296 -0.0346675
internal_weight=0 187.578 56.9095 324.662 53.028 130.669 20.3242 48.3888 122.315 271.634 105.515 32.9336 111.231 61.4454 95.9838 36.9253 19.7339 26.1607 46.7951 26.6031 32.7038 59.0584 20.9684 166.119 37.8078 128.311 18.0808 49.7852 20.192 20.1058
internal_count=1241 437 137 804 129 300 48 117 280 675 261 80 254 141 238 91 48 65 107 61 81 147 52 414 94 320 45 113 46 50
cat_boundaries=0 1
cat_threshold=36
is_linear=0
shrinkage=0.05


Tree=4
num_leaves=31
num_cat=1
split_feature=13 0 10 11 14 1 10 1 11 14 10 14 11 12 12 1 14 1 1 12 7 5 10 5 15 14 1 12 8 7
split_gain=215.989 35.7292 10.3303 9.78446 18.0776 7.67485 6.31327 3.09018 2.82819 1.85867 2.85322 1.76154 1.69316 2.37238 1.35717 2.20566 1.22986 0.502938 0.414874 0.328683 0.942996 0.245069 0.602565 0.142924 0.376878 0.138619 0.0455968 0.071652 0.000576697 0.000674973
threshold=0.50050000000000006 0 4.4800000000000013 -0.6349999999999999 0.48650000000000004 37288434.000000007 1.0625000000000002 37796112.000000007 -1.615 0.41150000000000009 0.6925 0.54550000000000021 -3.4949999999999997 0.49050000000000005 -0.48799999999999993 83342641.500000015 0.62100000000000011 48685168.500000007 42796190.500000007 1.0250000000000001 0.99650000000000005 0.025000000000000005 1.8875000000000002 0.49500000000000005 7.5620000000000012 0.91400000000000003 18660254.500000004 -1.0204999999999997 0.0055000000000000005 0.97450000000000014
decision_type=10 9 8 8 8 2 10 2 8 10 10 10 10 10 10 2 10 2 2 10 10 8 10 10 10 10 2 10 8 10
left_child=3 5 7 4 18 -2 -6 -3 11 23 16 -7 -9 -14 21 -16 -11 -13 -1 25 -21 22 -12 26 -25 -19 27 -5 29 -23
right_child=1 2 -4 9 6 8 -8 12 -10 10 14 17 13 -15 15 -17 -18 19 -20 20 -22 28 -24 24 -26 -27 -28 -29 -30 -31
leaf_value=0.022304083728573482 -0.011578691323543012 -0.01213656103572858 -0.052550958347877513 0.027631197836743584 -0.058061550321574375 -0.04529560441670169 -0.0029521106356286426 0.034783356732649505 -0.039218544285108681 0.019557933837122524 0.017455346773151161 -0.057251825035158813 0.021161775134080633 -0.010609722402169331 0.001007043670384463 0.034331764515954759 -0.0050707392436882374 -0.072020023469325012 0.034020022047141635 -0.049846739476334057 -0.069345273612227393 0.033963079313783527 0.03414199739628844 0.033952703065706337 0.023506295717709152 -0.067097484250746381 0.033952703065706337 0.034058628826034561 0.034594110217010622 0.03445076371765296
leaf_weight=12.344620555639269 8.4367936849594098 15.615161925554274 8.880069971084593 7.8015463948249844 10.382186859846117 12.042916357517241 10.40533924102783 8.0702547430992073 13.547566831111906 10.223796099424364 8.7775696218013781 15.60144382715225 14.59063202142716 9.8367370367050153 10.417021065950395 9.4875817596912366 10.053158819675444 24.011991262435913 19.479890435934067 9.5975459218025225 17.520218014717102 20.979313313961033 14.101837307214735 22.910125613212585 13.855482339859007 35.365371853113174 106.78448379039764 9.7613135576248151 8.3934366106986982 10.720459640026091
leaf_count=31 20 37 20 20 23 27 25 20 30 26 22 34 36 24 26 24 25 53 50 21 38 54 36 59 35 77 275 25 21 27
internal_value=0 -0.0416038 -0.00255343 0.0254791 0.00578799 -0.0538128 -0.0304761 0.00614379 -0.0608178 0.0293994 0.0241589 -0.0633814 0.0149275 0.00836761 0.0282721 0.0168914 0.00734723 -0.0655148 0.0294754 -0.0670052 -0.0624443 0.0318693 0.0277402 0.0327546 0.0300159 -0.0690881 0.0335644 0.0312035 0.0342256 0.034128
internal_weight=0 193.117 56.9929 316.879 52.612 136.124 20.7875 48.1128 127.687 264.267 103.154 114.139 32.4976 24.4274 82.8772 19.9046 20.277 102.097 31.8245 86.4951 27.1178 62.9726 22.8794 161.113 36.7656 59.3774 124.347 17.5629 40.0932 31.6998
internal_count=1241 437 137 804 129 300 48 117 280 675 261 250 80 60 210 50 51 223 81 189 59 160 58 414 94 130 320 45 102 81
cat_boundaries=0 1
cat_threshold=36
is_linear=0
shrinkage=0.05


Tree=5
num_leaves=31
num_cat=1
split_feature=13 0 10 11 14 1 10 1 11 14 10 14 11 12 12 1 14 1 1 12 7 5 10 5 15 14 1 12 8 7
split_gain=215.989 35.7292 10.3303 9.78446 18.0776 7.67485 6.31327 3.09018 2.82819 1.85867 2.85322 1.76154 1.69316 2.37238 1.35717 2.20566 1.22986 0.502938 0.414874 0.328683 0.942996 0.245069 0.602565 0.142924 0.376878 0.138619 0.0455968 0.071652 0.000576697 0.000674973
threshold=0.50050000000000006 0 4.4800000000000013 -0.6349999999999999 0.48650000000000004 37288434.000000007 1.0625000000000002 37796112.000000007 -1.615 0.41150000000000009 0.6925 0.54550000000000021 -3.4949999999999997 0.49050000000000005 -0.48799999999999993 83342641.500000015 0.62100000000000011 48685168.500000007 42796190.500000007 1.0250000000000001 0.99650000000000005 0.025000000000000005 1.8875000000000002 0.49500000000000005 7.5620000000000012 0.91400000000000003 18660254.500000004 -1.0204999999999997 0.0055000000000000005 0.97450000000000014
decision_type=10 9 8 8 8 2 10 2 8 10 10 10 10 10 10 2 10 2 2 10 10 8 10 10 10 10 2 10 8 10
left_child=3 5 7 4 18 -2 -6 -3 11 23 16 -7 -9 -14 21 -16 -11 -13 -1 25 -21 22 -12 26 -25 -19 27 -5 29 -23
right_child=1 2 -4 9 6 8 -8 12 -10 10 14 17 13 -15 15 -17 -18 19 -20 20 -22 28 -24 24 -26 -27 -28 -29 -30 -31
leaf_value=-0.022304083728573482 0.011578691323543012 0.01213656103572858 0.052550958347877513 -0.027631197836743584 0.058061550321574375 0.04529560441670169 0.0029521106356286426 -0.034783356732649505 0.039218544285108681 -0.019557933837122524 -0.017455346773151161 0.057251825035158813 -0.021161775134080633 0.010609722402169331 -0.001007043670384463 -0.034331764515954759 0.0050707392436882374 0.072020023469325012 -0.034020022047141635 0.049846739476334057 0.069345273612227393 -0.033963079313783527 -0.03414199739628844 -0.033952703065706337 -0.023506295717709152 0.067097484250746381 -0.033952703065706337 -0.034058628826034561 -0.034594110217010622 -0.03445076371765296
leaf_weight=12.344620555639269 8.4367936849594098 15.615161925554274 8.880069971084593 7.8015463948249844 10.382186859846117 12.042916357517241 10.40533924102783 8.0702547430992073 13.547566831111906 10.223796099424364 8.7775696218013781 15.60144382715225 14.59063202142716 9.8367370367050153 10.417021065950395 9.4875817596912366 10.053158819675444 24.011991262435913 19.479890435934067 9.5975459218025225 17.520218014717102 20.979313313961033 14.101837307214735 22.910125613212585 13.855482339859007 35.365371853113174 106.78448379039764 9.7613135576248151 8.3934366106986982 10.720459640026091
leaf_count=31 20 37 20 20 23 27 25 20 30 26 22 34 36 24 26 24 25 53 50 21 38 54 36 59 35 77 275 25 21 27
internal_value=0 0.0416038 0.00255343 -0.0254791 -0.00578799 0.0538128 0.0304761 -0.00614379 0.0608178 -0.0293994 -0.0241589 0.0633814 -0.0149275 -0.00836761 -0.0282721 -0.0168914 -0.00734723 0.0655148 -0.0294754 0.0670052 0.0624443 -0.0318693 -0.0277402 -0.0327546 -0.0300159 0.0690881 -0.0335644 -0.0312035 -0.0342256 -0.034128
internal_weight=0 193.117 56.9929 316.879 52.612 136.124 20.7875 48.1128 127.687 264.267 103.154 114.139 32.4976 24.4274 82.8772 19.9046 20.277 102.097 31.8245 86.4951 27.1178 62.9726 22.8794 161.113 36.7656 59.3774 124.347 17.5629 40.0932 31.6998
internal_count=1241 437 137 804 129 300 48 117 280 675 261 250 80 60 210 50 51 223 81 189 59 160 58 414 94 130 320 45 102 81
cat_boundaries=0 1
cat_threshold=36
is_linear=0
shrinkage=0.05


Tree=6
num_leaves=31
num_cat=1
split_feature=13 0 11 14 10 1 1 8 15 7 14 8 1 14 7 10 14 1 12 7 10 9 1 5 5 15 1 14 1 1
split_gain=194.126 30.4975 9.30731 16.5579 9.03283 6.47786 2.82069 2.59773 2.21149 3.79591 1.83205 2.77859 1.80656 1.59696 1.32541 2.70417 1.3024 2.15233 0.716463 0.54983 0.947533 0.390223 0.263517 0.450727 0.142704 0.37285 0.0457296 0.0735331 0.00337801 0.0030721
threshold=0.50050000000000006 0 -0.6349999999999999 0.65450000000000019 4.4800000000000013 37288434.000000007 100947045.50000001 0.0045000000000000014 17.425000000000004 0.98650000000000004 0.41150000000000009 0.21100000000000002 135739912.00000003 0.37400000000000005 0.97450000000000014 1.6425000000000003 0.95400000000000007 117292946.50000001 -0.41449999999999992 0.96450000000000014 2.1500000000000008 0.98950000000000016 66943583.000000007 0.03500000000000001 0.49500000000000005 7.5620000000000012 18660254.500000004 0.17200000000000001 66458227.500000007 116423413.50000001
decision_type=10 9 8 8 8 2 2 8 10 10 10 8 2 10 10 10 10 2 10 10 10 10 2 8 10 10 2 10 2 2
left_child=2 5 3 13 6 -2 8 16 -3 -10 24 14 -8 21 22 -16 17 19 -17 29 -21 -1 23 -12 26 -26 27 -4 -18 -7
right_child=1 4 10 -5 -6 7 12 -9 9 -11 11 -13 -14 -15 15 18 28 -19 -20 20 -22 -23 -24 -25 25 -27 -28 -29 -30 -31
leaf_value=0.020404604826007141 -0.010898128859702075 0.01754545044545525 0.033506383170154058 -0.036717429850194494 -0.048285067385493083 -0.065028185667359559 0.034440225909216263 -0.033523803548472793 -0.037406119453424161 0.0059368168912913742 0.018424574562907737 -0.0024473104962138689 0.0029845168816963912 0.0049733702673263949 -0.0024963815997551021 0.033416922992687996 -0.064684628884808887 -0.037232749050639578 0.0151606194612649 -0.040778262541137318 -0.060182338549963757 0.033690666760417737 0.033503239343493432 0.03344590450335419 0.033364947417342319 0.02283813207245244 0.033364947417342319 0.026896965653641181 -0.063682475691407892 -0.063840879563212188
leaf_weight=7.5978147983551052 8.5134279727935773 8.5475189983844775 9.4707696437835711 16.024831771850586 9.1732389628887159 10.408609837293627 10.725575238466265 11.810055941343306 8.863833814859392 11.744890004396437 9.4673141837120074 9.360729515552519 7.9461319446563712 8.2056700587272626 10.641682654619215 16.955156624317169 10.429729372262953 15.697090893983839 7.8679721653461483 9.31940805912018 19.363396555185318 20.273612469434738 35.96868360042572 10.568679153919218 22.166867762804031 13.555499464273451 103.32014635205269 7.5732787847518912 43.396184146404266 11.432003885507582
leaf_count=20 20 21 25 36 20 22 27 26 21 28 24 23 20 20 26 45 22 34 20 20 41 53 95 28 59 35 275 20 91 24
internal_value=0 -0.0386333 0.0248442 0.00557525 -0.00241321 -0.0496337 0.00588029 -0.0558989 -0.00383672 -0.012705 0.0287519 0.0234987 0.0210536 0.0243609 0.0261539 0.0185904 -0.0581001 -0.0534048 0.0276304 -0.0584293 -0.0538777 0.0300689 0.0309434 0.0263481 0.0321455 0.0293704 0.0329691 0.0305696 -0.0638767 -0.0644067
internal_weight=0 197.371 309.019 52.1019 57.0012 140.37 47.828 131.856 29.1562 20.6087 256.917 100.83 18.6717 36.0771 91.4695 35.4648 120.046 66.2205 24.8231 50.5234 28.6828 27.8714 56.0047 20.036 156.087 35.7224 120.364 17.044 53.8259 21.8406
internal_count=1241 437 804 129 137 300 117 280 70 49 675 261 47 93 238 91 254 141 65 107 61 73 147 52 414 94 320 45 113 46
cat_boundaries=0 1
cat_threshold=36
is_linear=0
shrinkage=0.05


Tree=7
num_leaves=31
num_cat=1
split_feature=13 0 11 14 10 1 1 8 15 7 14 8 1 14 7 10 14 1 12 7 10 9 1 5 5 15 1 14 1 1
split_gain=194.126 30.4975 9.30731 16.5579 9.03283 6.47786 2.82069 2.59773 2.21149 3.79591 1.83205 2.77859 1.80656 1.59696 1.32541 2.70417 1.3024 2.15233 0.716463 0.54983 0.947533 0.390223 0.263517 0.450727 0.142704 0.37285 0.0457296 0.0735331 0.00337801 0.0030721
threshold=0.50050000000000006 0 -0.6349999999999999 0.65450000000000019 4.4800000000000013 37288434.000000007 100947045.50000001 0.0045000000000000014 17.425000000000004 0.98650000000000004 0.41150000000000009 0.21100000000000002 135739912.00000003 0.37400000000000005 0.97450000000000014 1.6425000000000003 0.95400000000000007 117292946.50000001 -0.41449999999999992 0.96450000000000014 2.1500000000000008 0.98950000000000016 66943583.000000007 0.03500000000000001 0.49500000000000005 7.5620000000000012 18660254.500000004 0.17200000000000001 66458227.500000007 116423413.50000001
decision_type=10 9 8 8 8 2 2 8 10 10 10 8 2 10 10 10 10 2 10 10 10 10 2 8 10 10 2 10 2 2
left_child=2 5 3 13 6 -2 8 16 -3 -10 24 14 -8 21 22 -16 17 19 -17 29 -21 -1 23 -12 26 -26 27 -4 -18 -7
right_child=1 4 10 -5 -6 7 12 -9 9 -11 11 -13 -14 -15 15 18 28 -19 -20 20 -22 -23 -24 -25 25 -27 -28 -29 -30 -31
leaf_value=-0.020404604826007141 0.010898128859702075 -0.01754545044545525 -0.033506383170154058 0.036717429850194494 0.048285067385493083 0.065028185667359559 -0.034440225909216263 0.033523803548472793 0.037406119453424161 -0.0059368168912913742 -0.018424574562907737 0.0024473104962138689 -0.0029845168816963912 -0.0049733702673263949 0.0024963815997551021 -0.033416922992687996 0.064684628884808887 0.037232749050639578 -0.0151606194612649 0.040778262541137318 0.060182338549963757 -0.033690666760417737 -0.033503239343493432 -0.03344590450335419 -0.033364947417342319 -0.02283813207245244 -0.033364947417342319 -0.026896965653641181 0.063682475691407892 0.063840879563212188
leaf_weight=7.5978147983551052 8.5134279727935773 8.5475189983844775 9.4707696437835711 16.024831771850586 9.1732389628887159 10.408609837293627 10.725575238466265 11.810055941343306 8.863833814859392 11.744890004396437 9.4673141837120074 9.360729515552519 7.9461319446563712 8.2056700587272626 10.641682654619215 16.955156624317169 10.429729372262953 15.697090893983839 7.8679721653461483 9.31940805912018 19.363396555185318 20.273612469434738 35.96868360042572 10.568679153919218 22.166867762804031 13.555499464273451 103.32014635205269 7.5732787847518912 43.396184146404266 11.432003885507582
leaf_count=20 20 21 25 36 20 22 27 26 21 28 24 23 20 20 26 45 22 34 20 20 41 53 95 28 59 35 275 20 91 24
internal_value=0 0.0386333 -0.0248442 -0.00557525 0.00241321 0.0496337 -0.00588029 0.0558989 0.00383672 0.012705 -0.0287519 -0.0234987 -0.0210536 -0.0243609 -0.0261539 -0.0185904 0.0581001 0.0534048 -0.0276304 0.0584293 0.0538777 -0.0300689 -0.0309434 -0.0263481 -0.0321455 -0.0293704 -0.0329691 -0.0305696 0.0638767 0.0644067
internal_weight=0 197.371 309.019 52.1019 57.0012 140.37 47.828 131.856 29.1562 20.6087 256.917 100.83 18.6717 36.0771 91.4695 35.4648 120.046 66.2205 24.8231 50.5234 28.6828 27.8714 56.0047 20.036 156.087 35.7224 120.364 17.044 53.8259 21.8406
internal_count=1241 437 804 129 137 300 117 280 70 49 675 261 47 93 238 91 254 141 65 107 61 73 147 52 414 94 320 45 113 46
cat_boundaries=0 1
cat_threshold=36
is_linear=0
shrinkage=0.05


Tree=8
num_leaves=31
num_cat=1
split_feature=13 0 11 14 10 1 10 1 11 11 14 10 14 14 12 1 14 1 1 12 7 5 10 5 15 14 1 15 8 7
split_gain=175.348 26.4198 8.87438 15.106 8.01087 5.58833 5.38155 2.90821 2.31902 2.19137 1.80717 2.75884 1.59702 1.36635 1.32476 2.1086 1.10474 0.428175 0.420009 0.282645 0.747737 0.247333 0.588475 0.143139 0.370297 0.131837 0.046108 0.0758118 0.00122495 0.00115965
threshold=0.50050000000000006 0 -0.6349999999999999 0.48650000000000004 0.54250000000000009 37288434.000000007 1.0625000000000002 100947045.50000001 -1.615 -2.7449999999999997 0.41150000000000009 0.6925 0.81850000000000012 0.54550000000000021 -0.48799999999999993 83342641.500000015 0.62100000000000011 42796190.500000007 48685168.500000007 1.0250000000000001 0.99650000000000005 0.025000000000000005 1.8875000000000002 0.49500000000000005 7.5620000000000012 0.91400000000000003 18660254.500000004 10.935 0.0095000000000000032 0.98050000000000004
decision_type=10 9 8 8 10 2 10 2 8 10 10 10 10 10 10 2 10 2 2 10 10 8 10 10 10 10 2 10 8 10
left_child=2 5 3 17 -3 -2 -5 9 13 -6 23 16 -9 -7 21 -16 -12 -1 -15 25 -21 22 -13 26 -25 -20 27 -4 29 -23
right_child=1 4 10 6 7 8 -8 12 -10 -11 11 14 -14 18 15 -17 -18 -19 19 20 -22 28 -24 24 -26 -27 -28 -29 -30 -31
leaf_value=0.020774815619224236 -0.010265364276668075 -0.042251860296956711 0.026186896178531784 -0.05144045769965086 0.01120605543973047 -0.038589684277728957 -0.0014015492435939334 0.03390363656817539 -0.032774189459007744 -0.017100250401584475 0.01810224159224888 0.016214884288366947 0.0045866747150532881 -0.048589730777987866 0.0001642306769199704 0.033347453928056436 -0.0055547839254238259 0.032996429926262415 -0.061913692126599154 -0.042199846629527409 -0.059109419607468988 0.032840477693161341 0.033081532543622415 0.032824971926559456 0.022193469596464465 -0.057251213727235323 0.032824971926559456 0.03300210590549911 0.03378081408941383 0.033494586546479535
leaf_weight=11.758488506078722 8.584403991699217 10.44453117251396 7.3436138033866909 10.846136689186098 12.59264227747917 12.673051923513411 10.648401796817778 10.791958242654802 14.221431583166121 14.960290312767031 9.7768441438674945 8.4784955382347125 8.1559449136257154 16.457056611776352 10.253640651702883 8.9801745116710645 9.964617580175398 18.350630551576614 25.489132791757584 10.097081989049913 18.545686781406403 20.353604346513752 13.258258700370787 21.423778712749481 13.259388506412504 37.419705957174301 99.856595695018768 9.1833623349666578 7.2611613869667044 10.157440960407255
leaf_count=31 20 23 20 23 31 27 25 28 30 35 26 22 20 34 26 24 25 50 53 21 38 56 36 59 35 77 275 25 19 27
internal_value=0 -0.0361138 0.0242414 0.0053665 -0.00228121 -0.0461645 -0.0266512 0.00620601 -0.051871 -0.00416329 0.0281444 0.0228746 0.0212844 -0.0541214 0.0270648 0.0156573 0.00616122 0.0282235 -0.0559438 -0.0572657 -0.0531485 0.0307519 0.0265026 0.0315799 0.0287605 -0.0591403 0.0324201 0.0299738 0.0331971 0.0330582
internal_weight=0 200.433 301.155 51.6037 56.9454 143.488 21.4945 46.5008 134.903 27.5529 249.551 98.4842 18.9479 120.682 78.7428 19.2338 19.7415 30.1091 108.009 91.5516 28.6428 59.509 21.7368 151.067 34.6832 62.9088 116.384 16.527 37.7722 30.511
internal_count=1241 437 804 129 137 300 48 114 280 66 675 261 48 250 210 50 51 81 223 189 59 160 58 414 94 130 320 45 102 83
cat_boundaries=0 1
cat_threshold=36
is_linear=0
shrinkage=0.05


Tree=9
num_leaves=31
num_cat=1
split_feature=13 0 11 14 10 1 10 1 11 11 14 10 14 14 12 1 14 1 1 12 7 5 10 5 15 14 1 15 8 7
split_gain=175.348 26.4198 8.87438 15.106 8.01087 5.58833 5.38155 2.90821 2.31902 2.19137 1.80717 2.75884 1.59702 1.36635 1.32476 2.1086 1.10474 0.428175 0.420009 0.282645 0.747737 0.247333 0.588475 0.143139 0.370297 0.131837 0.046108 0.0758118 0.00122495 0.00115965
threshold=0.50050000000000006 0 -0.6349999999999999 0.48650000000000004 0.54250000000000009 37288434.000000007 1.0625000000000002 100947045.50000001 -1.615 -2.7449999999999997 0.41150000000000009 0.6925 0.81850000000000012 0.54550000000000021 -0.48799999999999993 83342641.500000015 0.62100000000000011 42796190.500000007 48685168.500000007 1.0250000000000001 0.99650000000000005 0.025000000000000005 1.8875000000000002 0.49500000000000005 7.5620000000000012 0.91400000000000003 18660254.500000004 10.935 0.0095000000000000032 0.98050000000000004
decision_type=10 9 8 8 10 2 10 2 8 10 10 10 10 10 10 2 10 2 2 10 10 8 10 10 10 10 2 10 8 10
left_child=2 5 3 17 -3 -2 -5 9 13 -6 23 16 -9 -7 21 -16 -12 -1 -15 25 -21 22 -13 26 -25 -20 27 -4 29 -23
right_child=1 4 10 6 7 8 -8 12 -10 -11 11 14 -14 18 15 -17 -18 -19 19 20 -22 28 -24 24 -26 -27 -28 -29 -30 -31
leaf_value=-0.020774815619224236 0.010265364276668075 0.042251860296956711 -0.026186896178531784 0.05144045769965086 -0.01120605543973047 0.038589684277728957 0.0014015492435939334 -0.03390363656817539 0.032774189459007744 0.017100250401584475 -0.01810224159224888 -0.016214884288366947 -0.0045866747150532881 0.048589730777987866 -0.0001642306769199704 -0.033347453928056436 0.0055547839254238259 -0.032996429926262415 0.061913692126599154 0.042199846629527409 0.059109419607468988 -0.032840477693161341 -0.033081532543622415 -0.032824971926559456 -0.022193469596464465 0.057251213727235323 -0.032824971926559456 -0.03300210590549911 -0.03378081408941383 -0.033494586546479535
leaf_weight=11.758488506078722 8.584403991699217 10.44453117251396 7.3436138033866909 10.846136689186098 12.59264227747917 12.673051923513411 10.648401796817778 10.791958242654802 14.221431583166121 14.960290312767031 9.7768441438674945 8.4784955382347125 8.1559449136257154 16.457056611776352 10.253640651702883 8.9801745116710645 9.964617580175398 18.350630551576614 25.489132791757584 10.097081989049913 18.545686781406403 20.353604346513752 13.258258700370787 21.423778712749481 13.259388506412504 37.419705957174301 99.856595695018768 9.1833623349666578 7.2611613869667044 10.157440960407255
leaf_count=31 20 23 20 23 31 27 25 28 30 35 26 22 20 34 26 24 25 50 53 21 38 56 36 59 35 77 275 25 19 27
internal_value=0 0.0361138 -0.0242414 -0.0053665 0.00228121 0.0461645 0.0266512 -0.00620601 0.051871 0.00416329 -0.0281444 -0.0228746 -0.0212844 0.0541214 -0.0270648 -0.0156573 -0.00616122 -0.0282235 0.0559438 0.0572657 0.0531485 -0.0307519 -0.0265026 -0.0315799 -0.0287605 0.0591403 -0.0324201 -0.0299738 -0.0331971 -0.0330582
internal_weight=0 200.433 301.155 51.6037 56.9454 143.488 21.4945 46.5008 134.903 27.5529 249.551 98.4842 18.9479 120.682 78.7428 19.2338 19.7415 30.1091 108.009 91.5516 28.6428 59.509 21.7368 151.067 34.6832 62.9088 116.384 16.527 37.7722 30.511
internal_count=1241 437 804 129 137 300 48 114 280 66 675 261 48 250 210 50 51 81 223 189 59 160 58 414 94 130 320 45 102 83
cat_boundaries=0 1
cat_threshold=36
is_linear=0
shrinkage=0.05


Tree=10
num_leaves=31
num_cat=1
split_feature=13 11 14 0 10 10 1 14 8 14 1 13 7 10 14 12 10 1 14 8 14 7 11 15 11 5 15 14 1 8
split_gain=159.263 14.4624 17.3919 13.5066 6.10423 5.78987 5.24292 2.0968 3.45376 1.89246 1.46594 1.43114 1.39814 3.58614 1.28439 1.04907 0.880128 1.58113 1.24693 0.689949 0.419486 0.403298 0.216757 0.465887 0.159215 0.144522 0.368982 0.10448 0.0468095 0.0774444
threshold=0.59850000000000014 -0.6349999999999999 0.65450000000000019 0 1.0625000000000002 1.0625000000000002 37288434.000000007 0.41150000000000009 0.71700000000000008 0.54550000000000021 42796190.500000007 0.41750000000000004 0.98650000000000004 1.6425000000000003 0.95400000000000007 -0.23199999999999998 1.6025000000000003 117292946.50000001 0.81850000000000012 0.52800000000000014 0.93450000000000022 0.95750000000000013 2.0050000000000003 17.975000000000005 0.25500000000000006 0.49500000000000005 7.5620000000000012 0.10650000000000001 18660254.500000004 0.054000000000000006
decision_type=10 8 8 9 10 8 2 10 8 10 2 10 10 10 10 10 10 2 10 8 10 10 10 10 8 10 10 10 2 10
left_child=1 2 11 6 -5 -4 -2 25 12 -6 -11 19 22 -14 16 -15 -8 18 -18 27 -20 -12 24 -24 -9 28 -27 -1 29 -3
right_child=3 7 5 4 9 -7 14 8 -10 10 21 -13 13 15 -16 -17 17 -19 20 -21 -22 -23 23 -25 -26 26 -28 -29 -30 -31
leaf_value=0.025821090198992105 -0.0096759768714178573 0.032524207927468837 -0.058425482204003093 -0.038209164716315983 0.023038334320518064 -0.0088865868141858404 -0.055772130813804013 0.026398837166393841 -0.010484087702554913 -0.019122104713751958 -0.0030288007304655517 0.0054380574571717384 -0.011788421376382587 0.032546806245126729 -0.055661161949126792 0.01078540246349643 -0.032869699780506988 -0.027238292798849428 -0.056907858555940216 0.013088321354510291 -0.044921353601907292 0.012476032040997603 0.015905149493937721 0.032733257545870829 0.032787272866969273 0.032327761169567835 0.021569973445546998 0.033172491035349784 0.032330162988570318 0.025527281719634389
leaf_weight=7.2143178880214753 8.6501872539520246 8.8904885649681109 11.74012169241905 12.227960824966429 8.6886042058467847 11.853051066398622 16.09691971540451 14.466943472623823 7.6930133104324332 9.8725229501724261 7.9530788660049465 11.467194169759749 8.5495153665542585 17.411592215299606 54.913870006799698 8.1214621663093585 11.178385376930235 12.998939603567122 19.198786020278934 7.406546711921691 11.776410728693007 8.8734117150306684 8.5602967441082018 7.9165126681327811 29.931060820817947 20.684361070394516 12.968008965253828 14.643592566251753 96.776568710803986 7.1233820915222159
leaf_count=20 20 25 24 27 22 27 33 39 19 23 20 28 21 49 111 20 23 27 39 20 24 22 23 22 83 59 35 40 276 20
internal_value=0 0.0217591 0.000623229 -0.0370024 -0.00640827 -0.0335375 -0.0440643 0.0272171 0.0217379 0.00276945 -0.00382661 0.0204103 0.0243483 0.01624 -0.0499147 0.025625 -0.0454857 -0.0424835 -0.0471847 0.0262771 -0.0523507 0.00514764 0.028888 0.0239904 0.0307056 0.0310578 0.0281822 0.0307461 0.0319158 0.0294118
internal_weight=0 313.418 64.3248 182.429 47.6156 23.5932 134.813 249.093 102.65 35.3876 26.699 40.7317 94.9574 34.0826 126.163 25.5331 71.2494 55.1525 42.1536 29.2645 30.9752 16.8265 60.8748 16.4768 44.398 146.443 33.6524 21.8579 112.79 16.0139
internal_count=1241 850 159 391 114 51 277 691 276 87 65 108 257 90 257 69 146 113 86 80 63 42 167 45 122 415 94 60 321 45
cat_boundaries=0 1
cat_threshold=36
is_linear=0
shrinkage=0.05


Tree=11
num_leaves=31
num_cat=1
split_feature=13 11 14 0 10 10 1 14 8 14 1 13 7 10 14 12 10 1 14 8 14 7 11 15 11 5 15 14 1 8
split_gain=159.263 14.4624 17.3919 13.5066 6.10423 5.78987 5.24292 2.0968 3.45376 1.89246 1.46594 1.43114 1.39814 3.58614 1.28439 1.04907 0.880128 1.58113 1.24693 0.689949 0.419486 0.403298 0.216757 0.465887 0.159215 0.144522 0.368982 0.10448 0.0468095 0.0774444
threshold=0.59850000000000014 -0.6349999999999999 0.65450000000000019 0 1.0625000000000002 1.0625000000000002 37288434.000000007 0.41150000000000009 0.71700000000000008 0.54550000000000021 42796190.500000007 0.41750000000000004 0.98650000000000004 1.6425000000000003 0.95400000000000007 -0.23199999999999998 1.6025000000000003 117292946.50000001 0.81850000000000012 0.52800000000000014 0.93450000000000022 0.95750000000000013 2.0050000000000003 17.975000000000005 0.25500000000000006 0.49500000000000005 7.5620000000000012 0.10650000000000001 18660254.500000004 0.054000000000000006
decision_type=10 8 8 9 10 8 2 10 8 10 2 10 10 10 10 10 10 2 10 8 10 10 10 10 8 10 10 10 2 10
left_child=1 2 11 6 -5 -4 -2 25 12 -6 -11 19 22 -14 16 -15 -8 18 -18 27 -20 -12 24 -24 -9 28 -27 -1 29 -3
right_child=3 7 5 4 9 -7 14 8 -10 10 21 -13 13 15 -16 -17 17 -19 20 -21 -22 -23 23 -25 -26 26 -28 -29 -30 -31
leaf_value=-0.025821090198992105 0.0096759768714178573 -0.032524207927468837 0.058425482204003093 0.038209164716315983 -0.023038334320518064 0.0088865868141858404 0.055772130813804013 -0.026398837166393841 0.010484087702554913 0.019122104713751958 0.0030288007304655517 -0.0054380574571717384 0.011788421376382587 -0.032546806245126729 0.055661161949126792 -0.01078540246349643 0.032869699780506988 0.027238292798849428 0.056907858555940216 -0.013088321354510291 0.044921353601907292 -0.012476032040997603 -0.015905149493937721 -0.032733257545870829 -0.032787272866969273 -0.032327761169567835 -0.021569973445546998 -0.033172491035349784 -0.032330162988570318 -0.025527281719634389
leaf_weight=7.2143178880214753 8.6501872539520246 8.8904885649681109 11.74012169241905 12.227960824966429 8.6886042058467847 11.853051066398622 16.09691971540451 14.466943472623823 7.6930133104324332 9.8725229501724261 7.9530788660049465 11.467194169759749 8.5495153665542585 17.411592215299606 54.913870006799698 8.1214621663093585 11.178385376930235 12.998939603567122 19.198786020278934 7.406546711921691 11.776410728693007 8.8734117150306684 8.5602967441082018 7.9165126681327811 29.931060820817947 20.684361070394516 12.968008965253828 14.643592566251753 96.776568710803986 7.1233820915222159
leaf_count=20 20 25 24 27 22 27 33 39 19 23 20 28 21 49 111 20 23 27 39 20 24 22 23 22 83 59 35 40 276 20
internal_value=0 -0.0217591 -0.000623229 0.0370024 0.00640827 0.0335375 0.0440643 -0.0272171 -0.0217379 -0.00276945 0.00382661 -0.0204103 -0.0243483 -0.01624 0.0499147 -0.025625 0.0454857 0.0424835 0.0471847 -0.0262771 0.0523507 -0.00514764 -0.028888 -0.0239904 -0.0307056 -0.0310578 -0.0281822 -0.0307461 -0.0319158 -0.0294118
internal_weight=0 313.418 64.3248 182.429 47.6156 23.5932 134.813 249.093 102.65 35.3876 26.699 40.7317 94.9574 34.0826 126.163 25.5331 71.2494 55.1525 42.1536 29.2645 30.9752 16.8265 60.8748 16.4768 44.398 146.443 33.6524 21.8579 112.79 16.0139
internal_count=1241 850 159 391 114 51 277 691 276 87 65 108 257 90 257 69 146 113 86 80 63 42 167 45 122 415 94 60 321 45
cat_boundaries=0 1
cat_threshold=36
is_linear=0
shrinkage=0.05


Tree=12
num_leaves=31
num_cat=1
split_feature=13 0 10 14 11 1 11 1 11 11 10 11 14 7 10 12 7 10 9 14 14 5 11 10 7 8 8 1 14 10
split_gain=144.724 21.8124 7.10128 6.41575 11.4984 6.28855 3.61525 4.96206 2.56291 2.42891 2.51504 1.58168 1.35171 1.32268 1.72693 0.759382 0.388262 0.370875 0.348291 0.744408 0.238884 0.57438 0.688818 0.100896 0.375632 0.696043 0.100527 0.00239332 0.00156078 0.000802474
threshold=0.45850000000000002 0 1.0625000000000002 0.48650000000000004 -1.2849999999999999 37288434.000000007 0.25500000000000006 66943583.000000007 -1.615 -1.615 2.3100000000000005 -2.7449999999999997 0.72250000000000014 0.94850000000000012 1.6425000000000003 -0.55049999999999988 0.79700000000000004 3.9300000000000002 0.85400000000000009 0.15450000000000003 0.95400000000000007 0.025000000000000005 -3.4949999999999997 1.0350000000000004 0.17600000000000002 0.12300000000000001 1.0000000180025095e-35 66458227.500000007 0.41150000000000009 3.5975000000000006
decision_type=10 9 10 8 8 2 8 2 8 8 10 8 10 10 8 10 10 8 8 10 10 8 10 10 10 8 8 2 10 8
left_child=3 5 -3 17 -5 -2 7 -6 12 10 11 -4 16 -8 -15 -16 -7 18 19 -1 21 22 -14 24 26 -26 -20 -22 -25 -29
right_child=1 2 9 4 6 8 13 -9 -10 -11 -12 -13 20 14 15 -17 -18 -19 23 -21 27 -23 -24 28 25 -27 -28 29 -30 -31
leaf_value=0.010716021892322014 -0.0038460290594675367 -0.030156234458811632 0.02789394662667885 -0.042453138825886028 -0.024933592891946878 -0.028715870458935085 0.032377389674532721 0.022480825361175485 -0.026561743476863089 0.024898642818172615 -0.015892699270022691 -0.0029397801426160569 -0.049974697673630331 0.0013672492268148339 0.032101962544575979 0.012539256774469232 -0.042121967474146871 0.01838872248401182 0.026106765334972581 0.032039383695853622 -0.052975926664468091 -0.054329368959632168 -0.035468368705358869 0.03201121822051501 0.032272715474523081 0.010881218963023059 0.03201325064218568 -0.052305684936454502 0.032725942660705568 -0.051861651671962133
leaf_weight=6.9610296487808254 9.9094476103782636 16.350832283496857 8.7029427289962751 8.3530744910240156 9.8378424942493456 9.6927288174629229 31.176209092140198 12.566434502601622 16.578019678592682 14.81705582141876 13.470558077096937 7.9663127660751405 18.287756294012066 10.585703164339067 15.434280544519423 7.3102729916572562 12.197066456079481 7.0666009187698355 8.2817143499851209 9.9340419173240644 9.968363404273985 19.339545696973801 14.81078949570656 69.031533300876617 8.3461500406265223 6.9854616224765786 55.351309686899185 23.445913702249531 8.5887909233570081 17.976739436388012
leaf_count=20 23 36 23 18 24 20 89 33 35 37 32 20 37 27 45 20 25 20 24 29 20 39 30 202 24 20 162 47 24 36
internal_value=0 -0.0307527 -0.0016674 0.0240775 0.0135792 -0.0397471 0.0189646 0.00166089 -0.0450405 0.00832312 0.00017441 0.0131584 -0.0474772 0.0249745 0.0180499 0.0258144 -0.0361858 0.0296169 0.0300743 0.0232538 -0.0498578 -0.0474835 -0.0434835 0.0308102 0.0295518 0.0225262 0.0312445 -0.0522804 0.0320903 -0.052113
internal_weight=0 213.514 61.3077 275.81 95.2638 152.206 86.9107 22.4043 142.297 44.9569 30.1398 16.6693 125.719 64.5065 33.3303 22.7446 21.8898 180.547 173.48 16.8951 103.829 52.4381 33.0985 156.585 78.9646 15.3316 63.633 51.391 77.6203 41.4227
internal_count=1241 460 148 781 256 312 238 57 289 112 75 43 254 181 92 65 45 525 505 49 209 106 67 456 230 44 186 103 226 83
cat_boundaries=0 1
cat_threshold=36
is_linear=0
shrinkage=0.05


Tree=13
num_leaves=31
num_cat=1
split_feature=13 0 10 14 11 1 11 1 11 11 10 11 14 7 10 12 7 10 9 14 14 5 11 10 7 8 8 1 14 10
split_gain=144.724 21.8124 7.10128 6.41575 11.4984 6.28855 3.61525 4.96206 2.56291 2.42891 2.51504 1.58168 1.35171 1.32268 1.72693 0.759382 0.388262 0.370875 0.348291 0.744408 0.238884 0.57438 0.688818 0.100896 0.375632 0.696043 0.100527 0.00239332 0.00156078 0.000802474
threshold=0.45850000000000002 0 1.0625000000000002 0.48650000000000004 -1.2849999999999999 37288434.000000007 0.25500000000000006 66943583.000000007 -1.615 -1.615 2.3100000000000005 -2.7449999999999997 0.72250000000000014 0.94850000000000012 1.6425000000000003 -0.55049999999999988 0.79700000000000004 3.9300000000000002 0.85400000000000009 0.15450000000000003 0.95400000000000007 0.025000000000000005 -3.4949999999999997 1.0350000000000004 0.17600000000000002 0.12300000000000001 1.0000000180025095e-35 66458227.500000007 0.41150000000000009 3.5975000000000006
decision_type=10 9 10 8 8 2 8 2 8 8 10 8 10 10 8 10 10 8 8 10 10 8 10 10 10 8 8 2 10 8
left_child=3 5 -3 17 -5 -2 7 -6 12 10 11 -4 16 -8 -15 -16 -7 18 19 -1 21 22 -14 24 26 -26 -20 -22 -25 -29
right_child=1 2 9 4 6 8 13 -9 -10 -11 -12 -13 20 14 15 -17 -18 -19 23 -21 27 -23 -24 28 25 -27 -28 29 -30 -31
leaf_value=-0.010716021892322014 0.0038460290594675367 0.030156234458811632 -0.02789394662667885 0.042453138825886028 0.024933592891946878 0.028715870458935085 -0.032377389674532721 -0.022480825361175485 0.026561743476863089 -0.024898642818172615 0.015892699270022691 0.0029397801426160569 0.049974697673630331 -0.0013672492268148339 -0.032101962544575979 -0.012539256774469232 0.042121967474146871 -0.01838872248401182 -0.026106765334972581 -0.032039383695853622 0.052975926664468091 0.054329368959632168 0.035468368705358869 -0.03201121822051501 -0.032272715474523081 -0.010881218963023059 -0.03201325064218568 0.052305684936454502 -0.032725942660705568 0.051861651671962133
leaf_weight=6.9610296487808254 9.9094476103782636 16.350832283496857 8.7029427289962751 8.3530744910240156 9.8378424942493456 9.6927288174629229 31.176209092140198 12.566434502601622 16.578019678592682 14.81705582141876 13.470558077096937 7.9663127660751405 18.287756294012066 10.585703164339067 15.434280544519423 7.3102729916572562 12.197066456079481 7.0666009187698355 8.2817143499851209 9.9340419173240644 9.968363404273985 19.339545696973801 14.81078949570656 69.031533300876617 8.3461500406265223 6.9854616224765786 55.351309686899185 23.445913702249531 8.5887909233570081 17.976739436388012
leaf_count=20 23 36 23 18 24 20 89 33 35 37 32 20 37 27 45 20 25 20 24 29 20 39 30 202 24 20 162 47 24 36
internal_value=0 0.0307527 0.0016674 -0.0240775 -0.0135792 0.0397471 -0.0189646 -0.00166089 0.0450405 -0.00832312 -0.00017441 -0.0131584 0.0474772 -0.0249745 -0.0180499 -0.0258144 0.0361858 -0.0296169 -0.0300743 -0.0232538 0.0498578 0.0474835 0.0434835 -0.0308102 -0.0295518 -0.0225262 -0.0312445 0.0522804 -0.0320903 0.052113
internal_weight=0 213.514 61.3077 275.81 95.2638 152.206 86.9107 22.4043 142.297 44.9569 30.1398 16.6693 125.719 64.5065 33.3303 22.7446 21.8898 180.547 173.48 16.8951 103.829 52.4381 33.0985 156.585 78.9646 15.3316 63.633 51.391 77.6203 41.4227
internal_count=1241 460 148 781 256 312 238 57 289 112 75 43 254 181 92 65 45 525 505 49 209 106 67 456 230 44 186 103 226 83
cat_boundaries=0 1
cat_threshold=36
is_linear=0
shrinkage=0.05


end of trees

feature_importances:
Start=82
VEST3_score=70
MutationAssessor_score=58
FATHMM_score=38
Polyphen2_HVAR_score=32
SIFT_score=30
LRT_score=26
RadialSVM_score=26
LR_score=20
CADD_phred=20
Chr=14
MutationTaster_score=4

parameters:
[boosting: gbdt]
[objective: multiclass]
[metric: multi_logloss]
[tree_learner: serial]
[device_type: cpu]
[linear_tree: 0]
[data: ]
[valid: ]
[num_iterations: 100]
[learning_rate: 0.05]
[num_leaves: 31]
[num_threads: 0]
[deterministic: 0]
[force_col_wise: 0]
[force_row_wise: 0]
[histogram_pool_size: -1]
[max_depth: 8]
[min_data_in_leaf: 20]
[min_sum_hessian_in_leaf: 0.001]
[bagging_fraction: 1]
[pos_bagging_fraction: 1]
[neg_bagging_fraction: 1]
[bagging_freq: 0]
[bagging_seed: 3]
[feature_fraction: 1]
[feature_fraction_bynode: 1]
[feature_fraction_seed: 2]
[extra_trees: 0]
[extra_seed: 6]
[early_stopping_round: 10]
[first_metric_only: 0]
[max_delta_step: 0]
[lambda_l1: 0]
[lambda_l2: 0]
[linear_lambda: 0]
[min_gain_to_split: 0]
[drop_rate: 0.1]
[max_drop: 50]
[skip_drop: 0.5]
[xgboost_dart_mode: 0]
[uniform_drop: 0]
[drop_seed: 4]
[top_rate: 0.2]
[other_rate: 0.1]
[min_data_per_group: 100]
[max_cat_threshold: 32]
[cat_l2: 10]
[cat_smooth: 10]
[max_cat_to_onehot: 4]
[top_k: 20]
[monotone_constraints: ]
[monotone_constraints_method: basic]
[monotone_penalty: 0]
[feature_contri: ]
[forcedsplits_filename: ]
[refit_decay_rate: 0.9]
[cegb_tradeoff: 1]
[cegb_penalty_split: 0]
[cegb_penalty_feature_lazy: ]
[cegb_penalty_feature_coupled: ]
[path_smooth: 0]
[interaction_constraints: ]
[verbosity: 1]
[saved_feature_importance_type: 0]
[max_bin: 50]
[max_bin_by_feature: ]
[min_data_in_bin: 3]
[bin_construct_sample_cnt: 200000]
[data_random_seed: 1]
[is_enable_sparse: 1]
[enable_bundle: 1]
[use_missing: 1]
[zero_as_missing: 0]
[feature_pre_filter: 1]
[pre_partition: 0]
[two_round: 0]
[header: 0]
[label_column: ]
[weight_column: ]
[group_column: ]
[ignore_column: ]
[categorical_feature: 0,3,4,16,17]
[forcedbins_filename: ]
[objective_seed: 5]
[num_class: 2]
[is_unbalance: 1]
[scale_pos_weight: 1]
[sigmoid: 1]
[boost_from_average: 1]
[reg_sqrt: 0]
[alpha: 0.9]
[fair_c: 1]
[poisson_max_delta_step: 0.7]
[tweedie_variance_power: 1.5]
[lambdarank_truncation_level: 30]
[lambdarank_norm: 1]
[label_gain: ]
[eval_at: ]
[multi_error_top_k: 1]
[auc_mu_weights: ]
[num_machines: 1]
[local_listen_port: 12400]
[time_out: 120]
[machine_list_filename: ]
[machines: ]
[gpu_platform_id: -1]
[gpu_device_id: -1]
[gpu_use_dp: 0]
[num_gpu: 1]

end of parameters

pandas_categorical:[]
