tree
version=v3
num_class=1
num_tree_per_iteration=1
label_index=0
max_feature_idx=13
objective=binary sigmoid:1
feature_names=Chr_ Start SIFT_score Polyphen2_HDIV_score Polyphen2_HVAR_score LRT_score MutationTaster_score MutationAssessor_score FATHMM_score RadialSVM_score VEST3_score CADD_phred A_Ref_ A_Alt_
feature_infos=-1:0:22:8:2:11:10:15:19:3:18:7:17:6:21:16:1:5:20:12:14:4:9:13 [15086:249141507] [0:1] [0:1] [0:1] [0:1] [0:1] [-4.625:5.4800000000000004] [-13.640000000000001:10.380000000000001] [-1.859:1.9570000000000001] [0:1] [0:41] -1:14:5:0:12:18:15:9:16:3:2:7:1:11:13:8:6:10:21:4:19:17 -1:14:15:12:18:16:9:5:1:0:8:6:13:7:11:2:3:10:21:4:19:20
tree_sizes=10501 10737 10721 10686 10650 10722 10768 10683 10785 10705 10762 10753 10754 10639 10787 10702 10745 10724 10746 10708 10686 10775 10722 10689 10740 10812 10708 10713 10692 10821 10760 10690 10727 10731 10679 10828 10688 10688 10697 10681 10613 10610 10741 10776 10692 10664 10694 10708 10684 10710

Tree=0
num_leaves=100
num_cat=2
split_feature=9 10 9 10 8 8 9 9 10 13 4 10 10 4 8 10 10 8 8 8 10 10 8 10 10 8 10 8 4 8 13 8 10 8 10 8 9 6 4 8 10 10 8 6 8 4 8 10 4 10 9 8 8 6 8 10 8 4 10 10 9 8 10 4 6 4 6 8 10 6 6 8 6 10 10 8 9 4 9 9 8 4 9 4 10 4 10 8 8 8 8 8 4 8 10 9 4 8 10
split_gain=29914.7 2494.47 1173.59 776.421 639.233 246.092 131.125 124.137 158.281 106.584 90.8683 74.7261 64.4561 46.1273 39.8125 37.7819 36.5872 36.0601 31.3995 24.346 23.7544 23.6174 23.1373 42.0139 23.0016 22.7661 22.5794 37.6381 21.1549 21.0431 20.3785 20.195 20.4153 23.9033 18.1027 22.7852 17.8341 17.7783 17.3987 17.3825 17.1739 17.0288 16.4934 15.8493 13.4426 13.41 11.9719 11.3078 11.2796 12.0656 10.8634 10.8403 10.2309 9.43103 9.13432 8.77437 8.22307 8.02058 7.68685 7.37709 7.18447 7.12946 8.30461 7.04549 6.99512 6.75943 6.73827 6.66201 6.46175 6.25156 6.2305 5.94072 6.32936 5.61148 5.51422 5.49643 6.98744 6.29352 5.30056 5.25461 5.14074 5.10465 5.08336 4.95209 5.168 4.89098 4.8101 4.79441 4.74821 4.63063 4.56914 4.54753 6.08256 4.43678 3.84214 3.80176 7.07913 7.57363 4.1151
threshold=-0.44049999999999995 0.62150000000000005 0.30050000000000004 0.64450000000000018 0.69500000000000006 -0.16499999999999998 -0.8264999999999999 0.6725000000000001 0.6715000000000001 0 0.7895000000000002 0.83850000000000013 0.89050000000000007 0.018500000000000006 -1.2949999999999997 0.70750000000000013 0.90150000000000008 -1.1349999999999996 -1.2949999999999997 -1.1349999999999996 0.82550000000000001 0.96550000000000014 0.19500000000000003 0.46650000000000008 0.93250000000000022 -1.095 0.5415000000000002 -2.5749999999999997 0.15050000000000002 1.5750000000000004 1 -0.074999999999999997 0.34350000000000008 -2.6649999999999996 0.72750000000000015 1.2650000000000003 0.89450000000000018 0.99950000000000017 0.058500000000000003 1.3450000000000004 0.77050000000000007 0.080500000000000016 -4.1949999999999994 0.54550000000000021 0.64500000000000013 0.69550000000000012 3.3950000000000005 0.55150000000000021 0.038500000000000006 0.6715000000000001 0.59450000000000014 -2.9849999999999999 -1.7149999999999996 0.99950000000000017 1.4850000000000001 0.86350000000000016 0.88500000000000012 0.48750000000000004 0.76450000000000007 0.098500000000000018 -1.0454999999999999 0.25500000000000006 0.97750000000000015 0.96650000000000003 0.10150000000000002 0.46850000000000008 0.99350000000000016 -3.7649999999999992 0.92250000000000021 0.99450000000000005 0.99950000000000017 -3.3149999999999995 0.99850000000000005 0.91850000000000021 0.66350000000000009 2.4650000000000003 -0.62849999999999995 0.99150000000000016 0.063500000000000015 -0.72049999999999981 -6.5549999999999988 0.69550000000000012 -0.16349999999999995 0.43650000000000011 0.47750000000000004 0.89950000000000008 0.14350000000000004 0.49500000000000005 -3.2449999999999997 0.43500000000000005 -5.0349999999999993 -0.18499999999999997 0.95550000000000013 0.43500000000000005 0.27550000000000008 -0.68349999999999989 0.049500000000000009 -0.46499999999999991 0.18150000000000002
decision_type=10 10 10 8 8 8 10 10 10 9 8 10 10 8 10 10 8 8 8 10 8 10 8 8 10 10 10 8 8 8 9 8 8 10 10 8 10 8 10 8 10 10 8 10 8 10 8 10 10 10 10 8 8 10 8 10 10 8 10 10 8 8 10 10 8 8 10 10 10 10 10 10 10 10 10 8 10 8 10 10 10 8 8 8 10 8 10 10 10 10 10 10 10 8 10 10 8 10 10
left_child=1 6 3 9 10 14 22 8 28 17 19 13 34 54 -5 -12 37 41 -10 64 25 39 23 59 44 36 51 -28 86 57 61 32 95 88 -7 69 45 -16 47 56 -39 -2 -30 -17 58 -9 68 -25 89 -50 65 71 -22 -51 -6 66 63 60 -20 -1 -15 -14 -63 -13 -3 -44 -45 -43 -32 -36 -19 -11 -73 -58 -59 76 -41 -77 94 -35 -47 -31 -69 84 -53 -81 -4 -57 -34 -21 -38 92 -26 -29 -72 98 -97 -98 -8
right_child=2 4 7 5 11 12 31 20 18 26 15 21 30 29 16 43 -18 70 24 48 52 -23 -24 38 91 -27 27 93 42 81 46 -33 33 79 35 -37 90 40 -40 75 -42 67 50 55 -46 80 -48 -49 49 53 -52 83 -54 -55 -56 87 73 74 -60 -61 -62 62 -64 -65 -66 -67 -68 82 -70 -71 78 72 -74 -75 -76 77 -78 -79 -80 85 -82 -83 -84 -85 -86 -87 -88 -89 -90 -91 -92 -93 -94 -95 -96 96 97 -99 -100
leaf_value=0.07326931045124313 0.11475402863676715 0.14912796321692237 0.13956324617895655 0.18396852441749437 0.16006349379568363 0.087414621935924003 0.080773320963801271 0.18384236022374978 0.18484860542085246 0.10189352327434151 0.091147734179987505 0.13601596549038375 0.15412003237201596 0.095630367119778778 0.17481118039029414 0.098417931334481956 0.17976049492707075 0.097687076061265754 0.13065300571997659 0.17894298311646539 0.18906668978423502 0.14925815389801927 0.07193443412991142 0.11321483349313446 0.15720743071322946 0.13402411088402222 0.17102734841802977 0.11179946091515686 0.097133817206662795 0.094778586735940112 0.14794920359661759 0.082064316305980128 0.13087230966237939 0.089280356519875037 0.1634750387738711 0.093388902771851107 0.18866733465324517 0.12456749384936579 0.091772265948074389 0.11259673922375155 0.15608094235000849 0.13283931620034484 0.15921860792279774 0.16545873113184281 0.11003518945922806 0.18837758801229509 0.13195983305071582 0.16450473385727352 0.12923871655729341 0.17686069037565502 0.16097030396191417 0.096885225974622818 0.18060372063994751 0.15474815198662742 0.12005542737028191 0.16417909911010703 0.13036237270970952 0.075654129556695066 0.16318470986330819 0.079541059440803266 0.12816498002394 0.12078214079378606 0.15051520406559749 0.096360739621797475 0.18399932821841997 0.13172192482256637 0.13233211448988705 0.15147953546310783 0.16983891685178579 0.13156802223642253 0.13565403858030353 0.099646120192747309 0.13884821357243871 0.15453913329976934 0.10249130392040445 0.11350155120427856 0.14610528003152884 0.088070080500205358 0.15076034100860211 0.11480706674073171 0.16365669980611136 0.08095992585840503 0.17231416943272451 0.087569268574942044 0.1282975260055661 0.090976988474858439 0.17006788681785229 0.13355572355446191 0.1706864285488392 0.14912796321692237 0.18265188240226207 0.16345113100918024 0.18335194731236948 0.084775130887415479 0.11007440723929282 0.10441852246268896 0.082846490704511458 0.1129878906462144 0.095852059102610576
leaf_weight=417.86501476168633 8.2129514515399915 5.9730556011199951 5.9730556011199942 367.84067410230637 10.203969985246657 12.941620469093321 59.730556011199951 75.160949647426605 446.9836608171463 35.091701656579971 13.439375102519987 7.2174421846866599 13.439375102519987 8.7107060849666578 31.607419222593307 5.7241782844066611 116.4745842218399 10.203969985246657 7.466319501399993 43.055775791406631 3375.7719238996506 26.380995571613312 3401.4062875211239 9.208460718393324 10.203969985246657 8.4618287682533246 9.9550926685333234 28.869768738746643 8.2129514515399915 42.806898474693298 15.679270952939985 162.01913318037987 4.9775463342666626 19.412430703639984 5.9730556011199942 14.683761686086653 295.16849762201309 20.407939970493317 19.91018533706665 39.571493357419968 62.219329178333282 6.7196875512599936 8.9595834016799909 6.4708102345466605 5.475300967693328 8.9595834016799909 10.203969985246657 6.2219329178333274 11.697233885526655 25.385486304759979 18.665798753499985 38.327106773853302 150.81965392827988 60.726065278053284 9.7062153518199938 30.114155322313309 20.407939970493317 8.7107060849666578 43.304653108119965 388.49749138951302 20.159062653779987 29.616400688886642 11.448356568813322 8.4618287682533246 109.50601935386658 60.726065278053284 29.367523372173309 18.665798753499985 71.925544530153275 45.793426275253296 7.7151968181133332 5.475300967693328 9.9550926685333234 14.43488436937332 51.019849926233292 20.159062653779984 6.2219329178333274 17.421412169933319 5.475300967693328 33.598437756299973 82.129514515399933 88.600324749946594 28.869768738746643 87.604815483093262 5.7241782844066611 10.701724618673323 27.127627521753311 5.2264236509799948 5.226423650979994 5.9730556011199942 275.00943496823311 20.407939970493317 78.396354764699936 7.2174421846866599 15.181516319513319 45.544548958539963 47.784444808959961 9.9550926685333234 30.611909955739975
leaf_count=1679 33 24 24 1478 41 52 240 302 1796 141 54 29 54 35 127 23 468 41 30 173 13564 106 13667 37 41 34 40 116 33 172 63 651 20 78 24 59 1186 82 80 159 250 27 36 26 22 36 41 25 47 102 75 154 606 244 39 121 82 35 174 1561 81 119 46 34 440 244 118 75 289 184 31 22 40 58 205 81 25 70 22 135 330 356 116 352 23 43 109 21 21 24 1105 82 315 29 61 183 192 40 123
internal_value=0.134227 0.0828373 0.179395 0.152186 0.133519 0.167643 0.0746727 0.185686 0.174305 0.113222 0.16295 0.107575 0.141368 0.0969831 0.177802 0.13696 0.167909 0.139701 0.180681 0.171879 0.187659 0.123485 0.0730685 0.0776746 0.169322 0.182663 0.102639 0.120232 0.144144 0.0930291 0.152786 0.0905558 0.0957596 0.109419 0.119504 0.125972 0.183225 0.155716 0.110088 0.118367 0.148262 0.154305 0.136989 0.145133 0.153511 0.174312 0.159827 0.134227 0.163618 0.157543 0.140834 0.0965051 0.188709 0.16142 0.14052 0.149058 0.132325 0.104582 0.158361 0.0762665 0.11797 0.135191 0.129187 0.114456 0.18226 0.135315 0.138457 0.160411 0.166009 0.135351 0.117548 0.108713 0.124696 0.140398 0.0982644 0.109974 0.117249 0.101377 0.125082 0.102594 0.166284 0.0853431 0.164343 0.0919071 0.100845 0.108744 0.164733 0.159615 0.151495 0.175472 0.185797 0.177383 0.180456 0.105965 0.118704 0.090604 0.095034 0.0878653 0.0857122
internal_weight=0 5425.53 6172.9 1159.52 752.854 830.255 4672.67 5013.38 741.903 329.265 352.659 400.195 231.705 239.918 598.55 90.3425 230.709 101.044 612.238 262.317 4271.48 160.277 4243.11 841.703 165.255 744.89 228.22 46.0423 129.665 220.008 152.313 429.562 267.543 73.9166 79.3919 66.4502 736.428 114.235 35.3406 133.896 82.6273 62.4682 96.5644 76.9031 56.2463 166.25 97.8088 15.4304 146.838 97.8088 88.3514 182.178 3526.59 86.1116 19.9102 71.1789 50.5221 88.6003 50.771 806.363 28.8698 54.5041 41.0648 15.6793 115.479 69.6856 35.8383 54.2553 87.6048 51.7665 38.576 50.5221 15.4304 34.8428 59.7306 83.3739 45.7934 37.5805 28.372 63.7126 91.0891 131.407 47.5356 131.656 44.0513 44.3002 33.1007 35.3406 10.204 49.0288 570.178 109.008 88.6003 36.0872 22.8967 193.627 103.284 57.7395 90.3425
internal_count=46603 21800 24803 4659 3025 3336 18775 20144 2981 1323 1417 1608 931 964 2405 363 927 406 2460 1054 17163 644 17049 3382 664 2993 917 185 521 884 612 1726 1075 297 319 267 2959 459 142 538 332 251 388 309 226 668 393 62 590 393 355 732 14170 346 80 286 203 356 204 3240 116 219 165 63 464 280 144 218 352 208 155 203 62 140 240 335 184 151 114 256 366 528 191 529 177 178 133 142 41 197 2291 438 356 145 92 778 415 232 363
cat_boundaries=0 1 2
cat_threshold=35076 2621941
is_linear=0
shrinkage=1


Tree=1
num_leaves=100
num_cat=2
split_feature=9 9 9 9 9 9 5 3 3 13 9 13 1 3 9 9 2 1 3 5 9 5 2 1 5 9 9 1 3 11 3 1 2 1 3 2 3 9 1 5 11 1 9 9 2 3 5 2 11 1 2 1 1 1 1 1 1 11 9 1 1 2 2 3 3 3 2 5 5 2 11 2 3 1 1 9 2 3 2 1 1 1 9 11 3 11 11 2 5 2 2 11 5 11 1 1 1 11 5
split_gain=28156.9 1114.31 1074.75 118.187 114.558 103.939 44.6655 28.6693 25.1502 23.1692 21.6974 19.6852 18.2752 15.6118 15.2678 14.8289 19.803 12.1286 11.7048 10.9265 10.3852 14.2916 10.2341 9.6609 9.60167 9.57523 9.54742 9.17665 8.9469 8.83292 8.53671 8.42965 8.04266 7.95723 10.8667 8.14811 8.28182 7.633 7.36588 10.6156 7.14175 6.29761 6.09067 6.00472 5.97265 7.18608 6.55117 6.2782 5.9231 6.41837 5.92144 5.89885 6.85661 5.70967 5.52859 5.50876 6.34299 5.34661 5.19316 4.94944 6.96416 9.09421 4.89602 4.87433 4.84486 4.83512 6.84476 4.80033 4.46001 4.37306 4.35973 4.30932 4.21632 4.21203 3.94903 4.52748 5.19934 3.94775 3.91964 3.84449 25.2764 3.62078 3.5519 3.53847 3.45552 3.45049 3.42784 3.48879 3.35437 7.15945 3.14425 3.22462 3.00167 6.54682 3.08947 2.88391 2.78981 3.09668 2.67456
threshold=-0.44049999999999995 0.30050000000000004 -0.87349999999999994 0.6725000000000001 -0.16349999999999995 -0.7034999999999999 0.0025000000000000005 0.21650000000000005 0.78650000000000009 0 -0.89249999999999996 1 6303044.0000000009 0.0025000000000000005 0.87750000000000006 -0.60849999999999993 0.10500000000000002 200818251.00000003 0.60050000000000014 0.34650000000000009 0.093500000000000014 0.016500000000000004 0.015000000000000001 11121711.500000002 0.0065000000000000006 0.52450000000000008 -1.0544999999999998 2152548.5000000005 0.0035000000000000005 20.750000000000004 0.90050000000000019 152991036.50000003 0.015000000000000001 11346260.500000002 0.0075000000000000006 0.095000000000000015 0.096500000000000016 -0.063499999999999987 57287840.500000007 0.98150000000000015 12.535000000000002 8811134.0000000019 -0.063499999999999987 -0.84049999999999991 0.10500000000000002 0.95350000000000013 0.0095000000000000032 0.015000000000000001 16.125000000000004 34647333.500000007 0.38500000000000006 152991036.50000003 166903809.50000003 116660193.50000001 66433533.000000007 105767376.50000001 67496118.000000015 8.2215000000000007 -0.32749999999999996 52890252.500000007 102351684.50000001 1.0000000180025095e-35 0.63500000000000012 0.98950000000000016 0.85150000000000003 1.0000000180025095e-35 0.90500000000000014 0.45550000000000007 1.0000000180025095e-35 0.03500000000000001 26.850000000000005 0.54500000000000015 0.99850000000000005 7579896.5000000009 7579896.5000000009 -0.81249999999999989 0.44500000000000006 0.97950000000000015 0.115 3560038.0000000005 3210324.5000000005 37142809.500000007 -0.53249999999999986 23.550000000000004 0.98950000000000016 17.785000000000004 24.850000000000005 1.0000000180025095e-35 0.010500000000000001 0.17500000000000002 0.13500000000000004 28.050000000000004 0.27850000000000008 8.2215000000000007 152991036.50000003 56275656.500000007 2549230.5000000005 15.815000000000003 0.059500000000000004
decision_type=10 10 10 10 10 10 8 8 8 9 10 9 2 8 10 10 10 2 10 10 10 10 10 2 10 10 10 2 10 10 8 2 8 2 10 8 10 10 2 8 10 2 10 10 10 8 10 10 10 2 8 2 2 2 2 2 2 10 10 2 2 8 10 8 8 10 8 10 8 8 8 8 8 2 2 10 8 10 10 2 2 2 10 10 8 8 10 8 8 8 10 10 10 10 2 2 2 10 8
left_child=2 4 10 25 7 8 15 33 24 18 13 44 27 -1 -5 84 22 29 73 51 21 41 72 -24 74 38 -15 -8 -18 32 64 82 -13 -2 55 36 -36 90 48 54 79 42 -11 -26 45 46 -9 -47 -3 68 -43 62 -53 -31 -40 56 -35 -57 85 88 61 -61 83 -21 78 66 -45 -23 -50 95 -30 -67 -17 -6 -4 -76 -77 -71 -14 80 -28 -60 -32 -10 -7 -46 87 -86 -22 -90 91 -20 94 -94 -12 -39 97 -42 -33
right_child=1 3 5 14 9 6 12 11 19 20 92 17 30 26 -16 16 28 -19 37 63 59 67 23 -25 43 -27 40 -29 70 53 31 98 -34 34 35 -37 -38 69 39 -41 96 50 -44 65 58 47 -48 -49 49 -51 -52 52 -54 -55 -56 57 -58 -59 81 60 -62 -63 -64 -65 -66 71 -68 -69 -70 77 -72 -73 -74 -75 75 76 -78 -79 -80 -81 -82 -83 -84 -85 86 -87 -88 -89 89 -91 -92 -93 93 -95 -96 -97 -98 -99 -100
leaf_value=-0.05863726208671273 0.038036453813663378 0.047254854846108148 -0.0096274733228919763 0.047699560745322403 0.048965546871682288 -0.022234397268309267 0.00048506176015017616 -0.0059751292805313352 -0.044186923490637811 0.013425744551570959 -0.044480878186184389 0.024023995385438906 -0.0070926723707318354 -0.057430103878472687 0.052851606994278287 -0.0059033215461584678 0.033774129532801143 -0.030825913469269512 -0.013803627720676368 -0.026513145325314902 0.041489797217169069 0.045213533790548745 0.0042081589074540876 -0.038887639587787105 -0.0291971355608544 0.043024496878764099 -0.05448615481635119 0.045918440352697376 -0.0065421472571756661 -0.0047675196848740728 -0.021920662928988723 -0.0029318441576012305 0.0080984807320866586 0.0043649808076092313 0.025191134407466106 0.034202508505737493 -0.020736962133342855 0.014685072678005711 0.011096391073680842 -0.009143945579521676 -0.045400024656074241 0.017812397193035481 0.048178799884380188 -0.0099057559585798236 0.00044983477504774102 -0.009434775949953492 0.027499229435018306 -0.027735214477386125 0.025636149832849529 0.042487507064814779 0.031318331722532233 -0.0046762394243878552 -0.0364955929225095 0.015184367292314885 0.033833563886851423 -0.0006512207917019413 -0.029858017777787061 0.041222859313508935 0.028520164070977301 0.037247511421548897 0.035505038572049973 0.011065067564868834 -0.017767286537626801 0.0076656992784827904 0.028160614091890621 -0.01264280897827008 0.029517515466252833 0.019778410459887725 0.042604098622660694 0.0062125385582635579 0.019794857372472056 -0.032847546046401388 -0.020626994126377727 0.023195449577184578 -0.038013799942606882 -0.030597186732237134 -0.0098262866193604397 0.026767464655282024 0.0046620976457183968 -0.05540231945437419 0 0.0036371484453936349 -0.0051597922194586577 -0.03247396553697033 -0.017874502040472858 -0.026913110365340699 -0.020096409593814906 -0.043854286124471335 0.038054961303463294 0.0042894719501881803 0.014559987733940537 0.012556329162906313 0.0017195564856423453 -0.044205901235033422 -0.02186992692980206 0.0030685173314151373 -0.05120794387814704 -0.015559492321310316 0.024668138835684434
leaf_weight=1560.0158845931292 17.881774485111237 69.719629779458046 8.9649707376956922 659.87245616316795 7.2005623131990424 58.511254400014877 6.4724811911582973 20.651234686374668 155.62555937469006 7.2091429978609112 58.121011182665825 45.487091585993767 39.08252178132534 915.65121437609196 3593.3085820823908 32.615537494421005 5.9665827602148047 6.7248073965311042 19.160691574215896 8.4768462777137721 85.62017810344696 36.981743231415749 5.2282224893569937 34.63422779738903 26.927748367190361 320.95077127218246 51.670273497700691 10.68618233501911 55.24720124900341 49.242038741707802 36.386931419372559 5.9780745208263371 79.054297342896461 16.907919287681583 8.1975419670343381 30.050042822957039 5.7237102985382071 41.003760665655136 10.926806658506392 5.4666967242956153 11.480874776840212 175.15073248744011 14.892218098044394 15.686491921544077 9.7051768749952334 53.755586579442024 6.7110113501548758 25.147109732031822 62.039711058139801 78.897666811943054 36.494936361908913 9.7129975408315676 17.456940025091171 17.148740395903587 171.45309670269489 5.2245761752128583 6.4721956998109809 5.2146651595830917 6.9606954455375698 18.869636550545692 69.999385431408882 33.780773386359215 8.7224891632795316 6.2258887588977823 5.7220793664455405 47.340011462569237 4.9699678122997275 9.4378935843706113 20.101282298564911 12.176640212535856 5.9730555564165106 12.2118634134531 39.852934882044792 37.256893798708916 49.616971269249916 41.360870435833931 15.690759196877478 31.543378293514252 72.147130221128464 1160.7497000992298 8.9686965644359571 20.642585054039955 17.429965555667877 34.659989967942238 6.7268515825271598 6.7194122821092597 13.949746727943419 27.176122203469276 19.856620073318485 8.2028152197599393 6.708725854754447 4.9733630567789069 4.9778313189744932 5.7392315566539764 7.4783226698637 37.534965023398399 700.2623507976532 5.2392777055501929 5.9740735441446313
leaf_count=6249 72 281 36 2662 29 235 26 83 624 29 233 183 157 3668 14501 131 24 27 77 34 345 149 21 139 108 1294 207 43 222 198 146 24 318 68 33 121 23 165 44 22 46 705 60 63 39 216 27 101 250 318 147 39 70 69 691 21 26 21 28 76 282 136 35 25 23 190 20 38 81 49 24 49 160 150 199 166 63 127 290 4650 36 83 70 139 27 27 56 109 80 33 27 20 20 23 30 151 2806 21 24
internal_value=0 0.0439768 -0.0497159 0.0501259 0.0174493 -0.0207032 -0.0109876 0.00546428 -0.0308633 0.0248865 -0.0558478 0.00145157 -9.36872e-05 -0.0561266 0.0520563 -0.0185879 -0.0132655 0.00747677 0.0134946 -0.0376175 0.0284178 0.0249604 -0.0209551 -0.0331864 -0.0235085 0.0390043 -0.0547474 0.0292206 -0.000337478 0.0092756 -0.00290299 -0.0115292 0.013978 0.0199829 0.015672 0.0254611 0.00609997 0.0101808 0.0358876 0.0312675 -0.0534702 0.0218653 0.0372816 -0.0169018 -0.00651921 -0.0107969 0.0023574 -0.0153806 0.0395926 0.0361788 0.0201936 -0.039253 -0.0253831 0.000395189 0.0325049 0.00276208 -0.00526569 0.0206097 0.00228375 0.0336706 0.0292144 0.0206519 -0.0410935 -0.0120162 0.00194465 -0.0126507 -1.91793e-05 0.0402537 0.0299575 0.0135423 -0.00384952 -0.01697 -0.014085 0.0277232 -0.0295494 -0.0311696 -0.0250077 0.0211785 0.000502362 -0.0549718 -0.0464598 0.0102371 -0.0165953 -0.0421205 -0.0274858 -0.010883 -0.0336786 -0.0389717 0.0383678 0.0284185 -0.00306868 -0.00818587 -0.0395349 -0.0231908 -0.0420509 0.00919657 -0.0508868 -0.0366295 0.0109339
internal_weight=0 6150.41 5439.77 4992.74 1157.68 949.412 485.761 443.622 463.65 714.055 4490.35 347.95 199.879 4414.04 4253.18 285.882 179.518 197.657 197.559 240.881 516.496 280.167 112.331 39.8625 222.77 739.556 2854.02 17.1587 67.1868 190.932 182.721 65.769 124.541 95.6724 77.7907 43.9713 13.9213 153.102 418.605 187.847 1938.37 233.747 22.1014 107.136 150.293 106.265 27.3622 78.9027 230.758 161.039 211.646 226.178 27.1699 66.3908 182.38 33.8194 23.3801 10.4392 44.0279 236.329 122.65 52.6504 199.008 14.7027 116.952 80.2083 20.6565 46.4196 82.141 122.259 61.2203 59.5519 72.4685 44.4575 115.634 106.669 57.0516 43.72 111.23 1221.39 60.639 27.6033 53.8169 190.286 106.364 16.4246 47.8527 33.903 113.68 28.0594 30.8428 24.1341 76.3164 10.7171 65.5993 78.5387 716.983 16.7202 11.9521
internal_count=46603 24803 21800 20144 4659 3811 1951 1784 1860 2875 17989 1399 803 17683 17163 1148 721 795 795 966 2080 1128 451 160 894 2981 11434 69 270 768 734 264 501 385 313 177 56 616 1687 757 7766 941 89 430 604 427 110 317 930 649 852 907 109 267 735 136 94 42 177 952 494 212 798 59 470 322 83 187 331 492 246 239 291 179 464 428 229 176 447 4893 243 111 216 763 427 66 192 136 458 113 124 97 306 43 263 316 2873 67 48
cat_boundaries=0 1 2
cat_threshold=2106481 69113
is_linear=0
shrinkage=0.03


Tree=2
num_leaves=100
num_cat=8
split_feature=8 8 11 11 6 2 8 8 6 11 0 2 8 11 6 11 11 0 0 2 0 11 2 11 1 1 0 8 8 8 6 8 8 2 8 11 2 8 8 11 2 8 2 1 8 11 1 6 8 12 2 8 2 0 6 1 8 6 2 2 6 1 1 1 8 2 2 2 8 1 1 11 8 2 1 2 1 11 8 1 6 1 11 1 1 1 2 1 2 8 1 8 0 11 1 1 8 1 8
split_gain=20973.3 1518.56 1327.16 764.512 505.613 314.419 312.038 196.645 173.177 169.898 140.338 129.933 106.381 84.8725 83.8809 75.3352 70.9499 68.7531 58.229 57.4114 54.4512 46.9012 44.0154 40.9157 38.9258 38.1561 37.8353 35.2391 34.7254 32.6092 29.2771 28.2899 25.2637 25.0487 24.5911 22.1053 21.637 21.5061 19.9158 19.7557 18.7753 18.4685 16.8866 16.5241 15.7184 15.2107 14.5757 14.4913 13.8239 13.5113 13.3943 12.7597 12.736 12.5311 12.1127 11.3637 10.2497 10.151 9.44894 9.26385 9.23937 9.1323 26.6548 10.1443 9.01159 8.6416 8.62253 8.57662 8.55156 8.54674 8.23497 7.94783 7.33843 7.33792 7.21905 7.02134 6.63213 6.205 6.04061 5.98926 5.80646 5.77424 5.71617 5.62688 5.59685 7.11051 5.56461 5.56228 5.55023 5.29429 5.17003 5.181 5.14238 5.10367 5.06959 7.84417 5.04438 4.94543 4.62208
threshold=-1.1349999999999996 0.49500000000000005 12.925000000000002 14.895000000000001 0.43850000000000011 1.0000000180025095e-35 -4.4449999999999994 -2.5149999999999992 0.41250000000000003 6.3289999999999997 0 1.0000000180025095e-35 -1.9249999999999996 16.515000000000004 0.50050000000000006 15.475000000000003 16.125000000000004 1 2 0.095000000000000015 3 15.565000000000003 0.055000000000000007 21.450000000000003 7579896.5000000009 8811134.0000000019 4 1.2250000000000003 -0.16499999999999998 1.5150000000000003 0.51850000000000007 1.425 -1.6349999999999996 1.0000000180025095e-35 -5.1349999999999989 0.066500000000000017 0.03500000000000001 1.4850000000000001 -0.50499999999999989 12.635000000000003 0.075000000000000025 -3.9249999999999994 1.0000000180025095e-35 25435663.500000004 -4.3449999999999989 12.925000000000002 6303044.0000000009 0.60850000000000015 -3.8449999999999993 5 0.12500000000000003 -2.6649999999999996 0.36500000000000005 6 0.99750000000000016 40955265.000000007 -0.34499999999999992 0.99850000000000005 0.12500000000000003 0.31500000000000006 0.99950000000000017 3560038.0000000005 3210324.5000000005 187083720.50000003 1.385 0.015000000000000001 0.10500000000000002 0.065000000000000016 -1.5449999999999997 57287840.500000007 40955265.000000007 23.050000000000004 -0.7649999999999999 1.0000000180025095e-35 40955265.000000007 0.26500000000000007 152991036.50000003 2.3705000000000003 0.85500000000000009 37668864.000000007 0.99050000000000005 133607409.50000001 13.605000000000002 32006548.500000004 33136930.500000004 110029075.50000001 0.21500000000000002 25435663.500000004 0.50500000000000012 -0.93499999999999994 7059950.5000000009 1.2250000000000003 7 21.150000000000002 75513420.500000015 74228907.000000015 -0.30499999999999994 4805536.5000000009 -0.30499999999999994
decision_type=8 8 10 10 8 8 10 10 8 10 9 8 10 10 10 10 10 9 9 8 9 10 10 10 2 2 9 10 10 8 10 8 10 8 10 10 10 10 10 10 10 10 10 2 10 10 2 10 10 9 10 10 10 9 10 2 10 10 8 10 10 2 2 2 10 10 8 8 10 2 2 10 10 10 2 8 2 10 8 2 10 2 10 2 2 2 8 2 10 8 2 10 9 10 2 2 8 2 10
left_child=2 3 6 19 44 10 34 22 -5 18 13 28 14 64 59 37 33 25 24 26 66 -12 48 38 -8 -16 94 74 53 80 -17 46 65 -9 -1 -20 -19 58 -22 61 69 -24 45 68 -4 81 -32 -41 -6 -25 70 88 -26 -10 -31 -54 -49 -43 -7 -11 -30 62 -21 77 82 -18 -13 -36 -35 -34 -14 -33 89 -50 -15 -53 -74 -63 -76 -45 -23 -28 -3 -55 -29 -86 -58 -56 -37 -44 91 -60 -62 -67 95 97 -47 -2 -68
right_child=1 5 4 8 7 15 9 16 11 12 21 20 50 27 17 30 32 36 35 39 23 29 41 49 52 -27 42 84 60 54 31 71 40 43 67 51 -38 -39 -40 47 -42 57 72 79 -46 96 -48 56 73 -51 -52 75 55 83 87 -57 86 -59 90 -61 92 63 -64 -65 -66 93 98 -69 -70 -71 -72 -73 76 -75 78 -77 -78 -79 -80 -81 -82 -83 -84 -85 85 -87 -88 -89 -90 -91 -92 -93 -94 -95 -96 -97 -98 -99 -100
leaf_value=0.05013401301295678 0.028616550493816919 -0.033367841681673491 0.0030006226302436273 -0.049919759546828521 0.052187913351525457 -0.04647799026743267 0.039305587776374572 0.036126766544160686 0.037658053592494918 -0.01845792493189765 -0.052221320316374421 0.030718118778238171 -0.020152281146706977 0.010627927598026306 0.047365013327272082 -0.059770743408429118 0.044860419084375873 0.02154052617815215 -0.047284595611341393 -0.045975568797478931 -0.0040173389487262569 -0.037153950301832502 0.04709631078251738 -0.0022651269649185592 0.011361211672777845 0.021896700488093487 -0.034668251533098042 0.011124454774883462 -0.016706993178731155 -0.058878769134900685 -0.0033805278663214594 -0.050637723510585306 0.040008801392300966 0.033282603972654375 0.043522430462746377 -0.022553819795121159 -0.0050838822724987975 -0.058407825389834925 -0.023304085871077851 -0.055637882359904391 0.012761599366530279 0.022135335308549858 -0.030893179752508444 -0.012063724779778857 -0.042909109233034856 0.020494643438062194 -0.036676789361193368 -0.011820034847097731 0.049422263791529593 0.016260103796928368 -0.02131777078882012 -0.013788558590403503 -0.047293117259207311 0.0013640332927839574 -0.053454378248936875 -0.0084816715715475034 -0.018070249522261439 0.038411708109617713 -0.050932101401277512 -0.053856680481012942 0.020559829374617224 -0.052285180716841094 0.017214929531328273 -0.028563675917804662 -0.04839745591076923 0.031143054388476817 0.021203967669963766 0.016843024512459902 -0.0054025495893184521 0.027188862478569279 0.0078594093045661235 -0.040081621569412203 -0.042276769230112747 0.043431841477926711 0.019600974984336696 -0.034164903591377409 -0.015764448105479063 -0.043792653141638369 0.046877422765148877 0.0090720676240652141 -0.013168368504913427 -0.00012294608515513218 0.00018010848484235957 0.020464456739800848 -0.030609164665154058 0.0058653298399408754 -0.042248547378214929 -0.031174238711339518 -0.0025250228220100399 -0.0025919537656289215 -0.055182012680066346 -0.030198734416453009 0.0031035703410756642 0.041856353209080016 -0.0073202256696601013 0.054093301230325817 -0.011969761493481645 -0.0063107492948817146 -0.00097133529393561352
leaf_weight=125.79762345552444 6.9598193466663414 9.9846681952476519 7.4399180412292472 47.695147857069969 2243.1069507747889 198.40670329332352 20.516318023204803 56.593630433082581 124.20818287134171 18.919748604297641 132.6817741394043 43.931758597493172 13.448920622467993 9.9517600983381254 83.057086706161499 117.47656983137131 384.400838509202 37.660898149013519 47.943922132253647 18.987702131271362 79.844951748847961 10.23153807222843 277.1630841344595 86.495113581418991 16.666828900575638 149.98005279898643 19.952802821993831 9.956534221768381 10.948841914534567 24.739161446690559 12.722122669219969 304.07643666863441 113.95797678828239 38.352090179920197 16.034784063696861 22.15078192949295 98.943008244037628 1940.8057449311018 123.10266703367233 14.994494527578352 44.630790740251541 43.103163704276085 15.45887605845928 13.434310123324392 57.590586543083191 11.410761862993239 225.84645554423332 37.9021375477314 839.91755838692188 49.394059345126152 87.773901641368866 20.177373275160789 9.7384654134511965 18.570969104766846 12.730618640780447 22.18098172545433 14.474548727273939 232.94397613406181 41.738443166017532 10.742578163743017 27.557225048542023 123.4670140594244 8.4688205122947711 34.216930955648422 20.48858417570591 90.587556257843971 16.645736753940582 36.170120164752007 5.7233188897371283 88.51902012526989 29.824838384985924 94.879619672894478 73.661111608147621 279.06515175104141 10.93554110825062 77.623614102602005 10.477569818496702 321.27424564957619 30.021317943930622 96.32594133913517 82.885343492031097 5.7283844649791709 7.9680891185998908 58.693252801895142 11.726889848709108 7.7172452658414832 25.723822489380836 76.323066979646683 28.849719405174255 9.9658315628767031 648.39517125487328 17.992965459823608 50.896141171455383 88.931508421897888 5.9777580648660651 5.2365819364786139 6.4688142389059093 6.9811533987522125 16.4486323595047
leaf_count=510 28 40 30 191 9103 794 83 229 502 76 531 177 54 40 336 470 1558 152 192 76 321 41 1124 348 67 605 80 40 44 99 51 1217 461 155 65 89 398 7764 494 60 180 174 62 54 231 46 905 152 3407 199 352 81 39 75 51 89 58 943 167 43 111 494 34 137 82 366 67 146 23 358 120 380 295 1131 44 311 42 1286 121 388 333 23 32 237 47 31 103 306 116 40 2594 72 205 360 24 21 26 28 66
internal_value=0 -0.0417475 0.0390812 -0.0162928 0.0453203 -0.0513498 0.00704138 0.0464157 0.0052211 -0.000988748 -0.0279079 0.00896535 0.00881914 0.00155407 0.0165167 -0.0543292 0.0346633 0.0204206 -0.0205518 -0.0371577 -0.00178923 -0.037162 0.0494783 -0.00701381 0.00432145 0.0297581 -0.0221231 0.0192379 0.0243354 -0.0292254 -0.04583 -0.0432304 0.0386957 0.0190775 0.0429146 -0.0280873 0.00211538 -0.0565769 -0.0157451 -0.0416113 0.0305746 0.0415391 -0.0267162 0.0127317 -0.0376303 -0.012455 -0.0349177 -0.0286541 0.0507801 0.00549954 -0.0146013 -0.023687 -0.00966862 0.0312388 -0.040005 -0.0207274 -0.0232498 0.0359057 -0.0526365 -0.031769 0.00869912 -0.0439701 -0.0264229 -0.0449538 -0.0347898 0.0422319 0.0194875 0.0252852 0.0282026 0.0344645 -0.000869989 -0.0481653 -0.0347467 0.0479425 0.0342788 -0.0300405 -0.0390714 -0.0461894 0.0398482 0.00643748 -0.0159404 -0.0271454 -0.0185883 0.0141086 -0.00680829 -0.016142 -0.0338001 -0.0345549 -0.0113518 -0.0200527 -0.0543382 -0.0449087 0.0123254 0.0365246 0.0116467 0.0236833 0.00861334 0.0111932 0.0102008
internal_weight=0 5592.9 5975.99 1532.22 5001.79 4060.68 974.202 4936.76 754.433 796.199 458.342 706.738 530.351 118.751 399.303 3602.34 1021.46 369.641 265.848 777.789 415.863 339.592 3915.3 338.837 69.1026 233.037 178.279 80.3093 290.875 206.91 755.001 637.525 811.028 210.429 178.003 196.745 136.604 2847.34 202.948 599.51 247.108 553.21 153.124 153.836 65.0305 43.5608 238.569 93.095 3362.09 135.889 131.048 148.801 48.5863 201.472 113.793 31.9194 78.1005 276.047 906.533 29.6623 89.4022 506.415 27.4565 478.958 38.4413 563.92 77.0261 52.2049 44.0754 202.477 43.2738 398.956 109.563 1118.98 50.9086 97.801 84.1387 444.741 40.9569 109.76 93.1169 25.6812 17.9528 77.2642 29.4007 19.4441 40.1984 89.0537 51.0005 25.4247 708.127 59.7314 78.4534 179.519 25.1553 19.1776 17.8796 13.941 33.0944
internal_count=46603 22404 24199 6152 20275 16252 3924 20014 3037 3203 1838 2846 2136 477 1610 14414 4132 1491 1067 3115 1672 1361 15882 1362 278 941 715 323 1174 830 3023 2553 3283 849 721 789 550 11391 815 2400 999 2241 614 620 261 175 956 373 13641 547 526 597 195 814 456 128 313 1117 3627 119 360 2027 110 1917 154 2284 310 211 178 819 174 1597 439 4538 205 392 337 1780 165 442 374 103 72 312 118 78 161 357 205 102 2833 239 316 726 101 77 72 56 133
cat_boundaries=0 1 2 3 4 5 6 7 8
cat_threshold=4227968 4293533 4333856 6308992 2162816 2388045 6392300 4194445
is_linear=0
shrinkage=0.03


Tree=3
num_leaves=100
num_cat=11
split_feature=8 4 4 8 8 8 8 4 4 0 7 4 8 4 8 7 7 0 8 8 8 4 4 7 0 8 7 0 8 13 1 1 7 8 7 7 1 1 7 7 7 0 4 1 4 8 8 1 1 7 1 13 8 4 0 7 4 1 0 8 8 8 4 7 1 1 4 1 7 4 8 4 8 1 7 8 7 13 7 1 4 8 8 1 1 4 1 8 1 4 0 7 8 8 8 8 8 7 7
split_gain=19786.1 1525.96 1444.15 727.523 389.897 307.628 212.499 144.415 117.895 114.607 103.128 91.8842 89.8881 79.5763 60.1613 52.2837 50.0878 48.2532 42.8313 42.5418 42.1584 34.9711 34.4179 32.0052 30.9312 30.477 35.2179 28.002 26.3772 24.8636 24.2793 34.5803 22.3163 20.8978 22.8194 20.4208 20.0901 19.2484 18.6039 18.3389 17.797 17.3321 16.934 16.5324 16.3013 15.9372 13.9967 13.5357 18.1087 13.0468 12.4336 12.2547 12.1533 11.9331 11.7976 11.7108 11.6002 10.8264 10.6568 10.6377 10.0639 10.0461 9.93114 9.64664 17.4563 9.51815 9.15108 8.77175 8.723 8.55657 8.0567 7.81919 7.8017 8.83181 7.43773 7.25367 7.18699 7.1804 7.17867 7.60019 7.01101 6.88499 6.75195 6.73624 6.46363 6.32888 6.31773 10.5556 6.31415 6.16052 6.13031 6.09817 5.97285 5.96654 5.94614 5.82005 5.73929 5.68277 5.48189
threshold=-1.1349999999999996 0.19250000000000003 0.86450000000000016 0.64500000000000013 0.43500000000000005 -2.9849999999999999 -2.5149999999999992 0.013500000000000002 0.31350000000000006 0 2.2725000000000004 0.83150000000000013 -5.1349999999999989 0.0055000000000000005 1.5150000000000003 2.3975000000000004 1.9525000000000003 1 1.2250000000000003 -0.044999999999999991 -0.16499999999999998 0.0065000000000000006 1.0000000180025095e-35 2.1675000000000004 2 1.425 2.0725000000000002 3 -4.294999999999999 4 11346260.500000002 3560038.0000000005 2.2175000000000007 -1.8849999999999996 2.2425000000000006 2.3125000000000004 7579896.5000000009 5246929.5000000009 0.13250000000000003 1.9925000000000004 1.7425000000000004 5 0.98350000000000015 7579896.5000000009 0.74450000000000016 -2.4549999999999996 -1.7949999999999997 10188232.000000002 7579352.5000000009 1.0825000000000002 50745286.500000007 6 -3.2149999999999994 0.99950000000000017 7 2.6525000000000003 0.98550000000000015 3560038.0000000005 8 -0.27499999999999997 -0.6349999999999999 -3.3549999999999995 0.57550000000000012 2.4175000000000004 210135949.50000003 2797205.0000000005 0.012500000000000002 155209752.00000003 1.0000000180025095e-35 0.092500000000000013 -0.21499999999999997 0.99950000000000017 3.2250000000000005 20205922.000000004 2.5425000000000004 -0.55499999999999994 3.8475000000000006 9 3.0925000000000007 39644273.000000007 0.99550000000000016 -0.55499999999999994 -0.55499999999999994 7059950.5000000009 52523915.000000007 0.98150000000000015 53296093.500000007 0.49500000000000005 64573092.000000007 0.60550000000000004 10 1.7825000000000002 -0.27499999999999997 1.0650000000000002 -4.5549999999999988 -2.4849999999999999 -2.2549999999999994 1.2475000000000003 1.3875000000000002
decision_type=8 10 10 8 8 10 10 10 10 9 10 10 10 8 8 10 8 9 10 10 10 8 8 8 9 10 10 9 10 9 2 2 10 10 8 10 2 2 8 10 10 9 10 2 10 10 10 2 2 8 2 9 10 10 9 10 10 2 9 10 10 10 10 8 2 2 8 2 8 10 10 10 8 2 10 10 10 9 10 2 10 10 10 2 2 10 2 10 2 10 9 10 8 10 10 8 8 8 10
left_child=1 5 4 10 8 12 16 22 21 18 19 36 -1 38 15 71 28 47 35 24 56 -2 68 41 70 26 69 86 -3 49 31 -24 43 -13 -35 80 37 -8 94 58 75 -10 -20 61 84 98 -33 48 -9 95 -37 -29 -18 97 -25 57 81 65 89 91 -59 -15 74 -16 -65 -23 -45 -61 -7 -6 -4 -11 73 -44 -56 -26 -17 -49 -28 -80 -5 -12 -57 -31 -30 -54 -22 -88 -83 -38 -85 -43 -64 -78 -14 -19 -51 -21 -32
right_child=2 6 3 9 25 7 11 17 23 14 20 33 13 32 63 76 52 29 42 53 27 55 30 54 40 -27 78 51 44 83 45 46 -34 34 -36 50 39 -39 -40 -41 -42 59 72 66 -46 -47 -48 77 -50 96 -52 -53 85 -55 62 82 -58 60 -60 67 -62 -63 92 64 -66 -67 -68 -69 -70 -71 -72 -73 -74 -75 -76 -77 93 -79 79 -81 -82 88 -84 90 -86 -87 87 -89 -90 -91 -92 -93 -94 -95 -96 -97 -98 -99 -100
leaf_value=0.046729766481538211 -0.046235859754196605 0.047395817428937316 0.027843762124075012 -0.017509668189522341 -0.053547655032433646 -0.047475531450568403 0.00024040365910518792 -0.0082207725599718062 0.0045953083279858852 -0.040686942905726935 0.023482208886407549 0.042371301447569162 0.0044449058458931089 0.011786138780366284 -0.049733094231329725 -0.013460849241945691 0.050334312334414474 0.015807700519619616 -0.039325932180290839 -0.038458373372742626 0.0332906439342944 -0.024140501678084472 -0.041212096160431193 -0.011459268829053201 -0.0060099088157694845 -0.056056149394597722 -0.036603094880066619 0.0087995785193335351 0.03279229023867767 0.0097843067159379005 -0.012384625310189488 0.032518072634582763 0.046487878708046819 0.021649777907037579 0.037663279100654382 0.0030441087360731987 0.0097092388972187874 0.04604689187047608 0.0051341709378802253 0.024091687436094973 0.0066037021548735128 -0.022878885780449061 -0.03258251782353596 0.00012233244704306775 0.039473770394326896 -0.029286709063974185 -0.01781144773333693 -0.0006050133160167997 0.052051038763792905 0.037505993804095805 0.043766209118745868 -0.014482589580413858 0.040151509468253854 0.018741562834280058 0.01494575973128066 0.023668792661594218 0.031561835924430647 -0.026202944349402079 -0.0024517514667870841 -0.039301532275130696 -0.037630655300014963 0.052724384133894693 0.034504418365370888 -0.041665300504860531 0.010978265617647476 0.024617828170897988 0.019503944829100263 -0.010904500724754502 -0.023424847452543186 -0.046954241798232411 0.0015574736976651312 -0.010933354687463905 -0.040475149582829113 0.005119548380366966 -0.022081480751802676 -0.027684514483249725 -0.0078372149798481838 0.02015896207137376 -0.040298016907989911 -3.2822782785743348e-05 0.016732101483755361 0.016980804100650379 -0.023287105014300008 -0.0025751927490601273 0.018795269268528748 0.047592133465246586 0.02083702385044647 -0.023331207597150311 -0.015854372503203689 0.03056378909945133 -0.023380871858664762 -0.0039428770993713974 0.0044234502552118245 0.030147326339703882 -0.027182603205836171 -0.012534326350605226 0.010197535811186169 -0.019919527747746198 0.017152424567112849
leaf_weight=106.91323348879814 292.86903820931911 272.94259531795979 48.337091058492661 15.977019220590593 667.49613478779793 64.448854237794876 10.904577016830443 5.4658603370189693 24.898182943463326 130.40360310673714 37.840806946158409 438.40849450230598 5.9475507587194434 7.8975637704134014 264.1448846757412 82.248028665781021 2743.7201564759016 9.1790766268968564 26.980249583721161 21.466520592570305 27.778325170278549 10.992317363619803 11.23224665224552 24.890826508402824 25.864825010299683 2236.7827131897211 86.923405915498734 24.834305912256241 62.873152494430542 7.9321721196174613 33.859881669282913 20.753868788480759 34.616768598556519 120.07281328737736 256.33382706344128 10.190847739577295 40.441335260868073 35.151325315237045 39.179589882493019 86.648156598210335 48.902833640575409 59.86531837284565 6.7421658039093009 27.032408073544502 244.92460854351521 128.23992638289928 6.2306071519851711 28.314872547984123 21.593987792730331 14.827532008290289 20.767666712403297 47.266053423285484 175.55649334192276 5.7250163257122031 9.4543376713991183 4.9632835239171982 178.46007983386517 103.84989288449287 68.553870931267738 56.416150480508804 247.31957350671291 19.704341292381287 18.086277946829796 127.35267147421837 5.7412215769290915 4.9745592027902594 121.79789693653584 12.477007880806921 18.949979901313782 287.63671071827412 13.679016500711439 8.9843933731317502 5.4965501576662055 26.678077161312103 9.4371694028377515 31.157697468996048 7.9398532360792142 48.107516393065453 6.4915038496255901 11.45624929666519 7.7050524204969397 11.147721081972124 5.4783907830715162 33.044361919164658 61.945239707827568 356.95479863882065 30.518466129899025 5.4772527366876593 9.4436090588569623 19.047330275177956 55.281124770641327 21.15622316300869 9.2102259844541567 6.4446123838424683 39.373212561011314 20.424559071660045 13.898884251713755 57.081907898187637 6.4455309659242621
leaf_count=436 1172 1114 195 64 2671 258 44 22 100 522 153 1785 24 32 1057 330 11208 37 108 86 112 44 45 100 104 8951 348 100 255 32 136 84 141 486 1042 41 163 143 158 351 197 240 27 109 997 514 25 114 88 60 84 190 715 23 38 20 723 416 276 226 990 80 73 510 23 20 493 50 76 1151 55 36 22 107 38 125 32 194 26 46 31 45 22 133 251 1457 123 22 38 77 222 85 37 26 158 82 56 229 26
internal_value=0 0.0381097 -0.0404999 -0.0138433 -0.0492213 0.00326914 0.0447405 -0.0113475 -0.0318862 -0.0336813 0.0100843 0.0329022 0.0231793 0.0146132 -0.0385405 -0.0270677 0.0479862 0.00497001 -0.00453578 -0.00472057 0.0201034 -0.0384043 -0.0258587 -0.014079 0.00399897 -0.0540355 -0.0497547 0.00673828 0.0402485 -0.00580624 -0.0192272 0.00229105 0.0244566 0.037866 0.0325827 0.0146581 0.0173556 0.0353249 -0.00994284 0.0134457 -0.00605047 -0.0209723 -0.0211667 0.0200488 0.0349317 -0.024116 0.0207412 0.0197208 0.0398323 0.00881015 0.0305961 -0.0063366 0.0494995 -0.0220779 0.00285784 -0.0322915 0.027741 -0.033182 0.00618318 -0.0239471 -0.0342833 0.0413497 0.0107926 -0.0462949 -0.0393569 -0.00862821 0.016007 -0.0342629 -0.0421429 -0.0515799 0.0190609 -0.0388139 -0.00831155 -0.00263746 -0.00348202 -0.0179779 -0.0100318 0.0150109 -0.0330083 -0.0151509 -0.00619896 0.015929 -0.000706261 -0.0146814 0.0259267 0.0451676 0.0194686 0.0139128 0.00179561 0.0141756 -0.0185879 -0.0179966 0.0246001 0.00928563 -0.0229775 -0.00359575 0.0246178 -0.0251435 -0.00751021
internal_weight=0 5945.17 5591.9 1378.78 4213.13 950.693 4994.48 548.231 916.339 753.797 624.982 1075.56 402.463 295.549 633.259 236.02 3918.92 258.07 120.538 252.215 372.767 670.447 290.161 245.892 167.941 3296.79 1060 135.874 642.686 154.588 206.762 38.2167 211.049 814.815 376.407 54.6406 260.747 46.0559 84.5004 214.691 105.925 174.813 65.897 176.432 369.743 168.545 26.9845 103.482 27.0598 58.3301 30.9585 72.1004 3276.23 84.2734 71.0788 377.578 236.892 367.136 128.043 149.915 351.169 27.6019 46.188 397.239 133.094 15.9669 148.83 68.8932 83.3988 955.133 62.0161 139.388 38.9168 33.4202 18.8915 57.0225 96.6325 76.4224 104.871 17.9478 23.6821 58.4321 10.4417 96.2577 124.818 532.511 63.774 35.9957 20.5913 59.4887 88.3255 81.0215 27.2965 14.3845 45.3208 29.6036 28.7264 78.5484 40.3054
internal_count=46603 24199 22404 5540 16864 3835 20364 2204 3671 3020 2520 4367 1631 1195 2536 946 15997 1040 484 1014 1506 2684 1164 987 676 13193 4242 547 2617 622 830 154 855 3313 1528 220 1054 187 340 867 426 701 264 714 1503 676 109 418 110 235 125 290 13380 338 286 1512 959 1470 516 601 1406 112 186 1590 533 64 602 276 334 3822 250 558 156 134 76 229 388 308 420 72 95 236 42 387 506 2172 257 145 83 240 355 325 110 58 182 119 116 315 162
cat_boundaries=0 1 2 3 4 5 6 7 8 9 10 11
cat_threshold=4195200 5243235 6389900 6360010 23308 6291616 82446 951299 6818168 16888 559112
is_linear=0
shrinkage=0.03


Tree=4
num_leaves=100
num_cat=10
split_feature=10 0 1 10 12 7 1 0 4 10 10 13 10 13 10 0 7 10 13 10 4 10 13 1 4 0 10 4 7 10 1 1 10 10 4 10 10 1 10 4 4 4 1 1 4 13 7 4 4 10 4 4 1 1 7 1 10 7 10 4 7 10 7 7 1 1 1 10 7 1 10 10 10 10 7 1 4 4 7 10 1 4 10 7 1 10 7 7 7 10 10 7 1 7 10 10 1 1 1
split_gain=22277.9 848.006 576.045 549.869 492.054 481.756 478.647 161.463 221.689 151.956 147.716 153.24 130.036 106.322 104.992 94.7472 80.7091 80.4203 57.7373 47.3582 36.727 60.1992 33.6886 29.443 22.8463 22.2686 21.9729 21.3312 21.0303 17.6752 17.2345 18.2526 17.0996 15.1464 15.101 21.7787 14.98 14.8483 14.4724 14.418 12.9365 12.3549 12.3229 11.774 11.4341 11.3953 11.1201 9.37748 9.34739 9.33993 12.7287 9.31665 8.49913 9.31862 8.49911 8.35768 7.35589 7.25263 7.20237 6.44917 6.16515 7.94787 5.86377 5.51007 5.44415 5.30221 5.98979 5.16846 4.97122 4.9437 4.90593 4.8521 4.82094 5.74743 4.7879 4.77093 4.62928 4.59159 4.36125 4.34546 3.79967 3.76526 5.47476 3.69455 3.69205 4.63871 3.61876 5.442 3.42973 3.27981 3.14855 3.01837 2.88049 2.7489 2.74538 2.73746 2.65827 2.55891 2.49105
threshold=0.62150000000000005 0 7579896.5000000009 0.83850000000000013 1 2.3825000000000003 7508251.0000000009 2 0.75950000000000017 0.26950000000000007 0.38450000000000006 3 0.14350000000000004 4 0.72050000000000003 5 0.47250000000000003 0.93050000000000022 6 0.15550000000000003 0.056500000000000009 0.68650000000000011 7 6542983.5000000009 0.88950000000000007 8 0.40050000000000008 0.99550000000000016 3.3825000000000003 0.28150000000000003 99012855.500000015 7579896.5000000009 0.17250000000000001 0.77050000000000007 0.88950000000000007 0.72050000000000003 0.96650000000000003 7918700.5000000009 0.55150000000000021 0.91750000000000009 0.97850000000000004 0.97550000000000014 53296093.500000007 17942353.500000004 0.95750000000000013 9 3.0775000000000006 0.59750000000000003 0.20550000000000002 0.5415000000000002 0.058500000000000003 0.98950000000000016 5248214.0000000009 154227815.00000003 3.3975000000000004 135741455.50000003 0.82550000000000001 1.9325000000000003 0.49850000000000005 0.026500000000000006 0.47250000000000003 0.044500000000000005 1.2425000000000004 1.8725000000000003 56275656.500000007 7508251.0000000009 3560038.0000000005 0.65450000000000019 2.9925000000000006 35821823.500000007 0.82050000000000012 0.74050000000000005 0.30750000000000005 0.43650000000000011 1.2225000000000004 78280887.500000015 0.86450000000000016 0.99850000000000005 3.1675000000000004 0.14750000000000005 8811134.0000000019 0.97850000000000004 0.89350000000000007 2.2425000000000006 12065938.000000002 0.92050000000000021 2.1275000000000004 1.9525000000000003 2.7125000000000004 0.87550000000000006 0.44550000000000006 1.0825000000000002 166903809.50000003 0.80750000000000022 0.38450000000000006 0.40950000000000003 71717283.500000015 49456595.000000007 142680103.00000003
decision_type=10 9 2 10 9 10 2 9 8 8 8 9 8 9 10 9 10 10 9 10 10 10 9 2 10 9 8 10 10 10 2 2 10 10 8 10 10 2 10 10 10 8 2 2 10 9 10 8 10 8 8 10 2 2 10 2 10 10 10 10 10 10 8 8 2 2 2 10 8 2 10 10 10 8 10 2 8 10 8 10 2 8 10 8 2 10 10 8 10 10 10 10 2 8 10 8 2 2 2
left_child=1 2 6 7 5 12 44 30 20 27 32 16 60 29 22 24 96 25 40 76 62 45 54 38 63 42 -15 55 37 43 31 65 -6 78 75 64 -19 -17 90 72 70 71 69 -14 -1 48 -43 -40 -22 -25 -51 68 -24 -54 67 79 -42 -47 -28 -57 -3 -62 -9 -11 -36 66 -2 -10 -18 84 -16 -20 -21 -74 -44 93 -7 -37 -23 -4 -27 98 92 -81 -5 -86 87 -76 95 -88 -13 -63 -83 -33 -31 -41 -12 -26 -82
right_child=3 4 9 17 10 19 -8 8 14 15 11 23 13 26 18 28 51 36 41 39 21 33 52 49 97 80 58 -29 -30 94 -32 34 -34 -35 35 77 -38 -39 47 88 56 46 74 -45 -46 57 -48 -49 -50 50 -52 -53 53 -55 -56 59 -58 -59 -60 -61 61 91 -64 -65 -66 -67 -68 -69 -70 -71 -72 -73 73 -75 86 -77 -78 -79 -80 83 81 82 -84 -85 85 -87 89 -89 -90 -91 -92 -93 -94 -95 -96 -97 -98 -99 -100
leaf_value=-0.05445003852251571 0.042592953724145649 -0.053638380421836905 -0.053080780491617241 0.03428431445054033 -0.055377541890324948 -0.037295635799205744 0.051066934193296526 0.043951118761912919 -0.020194600596728538 -0.0068579792826315884 -0.025599562491230087 -0.041532503258900906 0.042377597235712161 -0.047136606865076036 -0.00502906066379859 0.0061884005356678514 0.013069572097937979 0.044563220933491902 0.0092214227204957585 -0.0061292260626256154 0.0045101165694442979 0.023945088103707358 0.0043406440438736984 -0.047809450436865658 0.02151719763816386 0.046372336911367489 -0.0040739280523313633 0.0054629689340362809 0.019023916873700249 0.026441712378064388 0.050650479661305765 0.046704188723621518 -0.050811346400481482 0.037824140789548683 0.0036160046887636693 0.033174060931202703 0.049003252476602838 -0.042354679843794464 0.035505435668543237 0.035143625994249264 -0.029201651840987962 0.0071923156275129387 0.033009666238822032 -0.0031823047898882593 -0.012161272696988424 0.019976870330586337 0.028111042848250559 -0.014757244379211779 -0.031306776309060202 -0.020017699566196277 -0.042684041266745208 0.049543409667847885 -0.035415945007723673 -0.0069624385325568559 0.043735409999436578 -0.043321161918305803 0.0029051589299281893 -0.0098189960781352933 -0.030703038125613979 -0.0074170159772660197 -0.052699728166167095 -0.028971312396177326 0.031675155293183418 0.022483123405976049 -0.031191329975150825 0.0511550301313239 0.017644122871178298 0.012463186234707182 0.044389060738020417 0.039198683892881954 0.020456371732281684 0.02905898406347537 0.045075087180909364 0.0034793818986163065 0.01529163879891444 0.012799712784215246 -0.0040573098783090525 0.015304602246434519 -0.0024298945836056678 -0.045341267115676862 0.041354816348586954 0.035935070458364027 0.041476407557554551 -0.020812904413671805 0.024538930443994387 -0.0043444930700798469 0.010465760302268305 -0.013533906824959696 0.043123104466778785 0.024925991540507359 -0.022088451699819867 -0.041993208424531789 0.022352317870527896 0.035564316232899192 0.047969635671068912 0.0063922692665292326 -0.055825943935923258 0.046571743229749524 0.047240000474192752
leaf_weight=48.905051216483116 49.495811581611633 129.22302888333797 154.92539018392563 31.095734179019928 2466.5304644554853 6.9678277075290653 178.83621083199978 128.72744332253933 5.6942671686410966 15.908713713288305 4.987947240471839 14.461050316691397 5.6840040534734717 61.093332454562187 34.83534862101078 6.1575366109609595 21.216181084513668 1114.9151609539986 13.594112560153006 7.652184426784518 9.6875464916229266 126.35799336433411 5.9128151684999457 401.0742938965559 5.6615205556154278 145.69492833316326 18.579700946807861 6.6515900492668143 6.3650862872600547 17.020865157246593 94.055309325456619 36.600630044937134 1166.9641276448965 116.80178864300251 16.977080672979358 60.8294537961483 2110.8604548573494 54.071430653333664 5.4162330478429768 9.0648700892925227 34.878451660275459 98.131645858287811 20.191867485642433 34.162082746624947 6.9149877727031699 23.072968125343323 29.891256377100945 7.6971109956502923 18.914924889802933 27.903607502579689 142.41254164278507 16.370249152183533 90.101078495383263 12.132342949509619 5.8367183208465567 10.71861805021763 7.6313211619853965 10.385590851306914 18.371255844831467 8.1709798574447614 59.37859907746315 29.389454066753387 56.674498975276947 8.5993055850267428 4.9583875387907019 67.55831541121006 11.660499006509779 15.547679081559179 5.8527968078851691 64.496839389204979 8.1279750019311887 84.920454695820808 5.6397352367639515 6.4042398333549508 21.974024385213852 7.1679436266422263 8.3932008296251297 18.153422713279724 5.6784629970788947 52.835530206561089 374.97172994911671 199.99678534269333 300.26056542992592 7.443655014038085 25.79438449442387 5.9234737306833258 21.927443772554398 7.6731157004833248 82.758296594023705 47.603267028927803 20.370436623692513 57.311990410089493 18.191696584224701 78.779771059751511 10.030748307704924 4.9321091026067743 10.727398410439489 25.343577891588211 112.0490557551384
leaf_count=196 201 518 621 127 9886 28 734 519 23 64 20 58 23 245 141 25 86 4569 55 31 39 511 24 1609 23 597 75 27 26 69 385 148 4679 474 69 248 8670 217 22 37 141 398 82 138 28 93 122 31 76 112 572 67 363 49 24 43 31 42 74 33 238 118 229 35 20 278 47 63 24 263 33 345 23 26 89 29 34 74 23 212 1530 818 1230 30 105 24 89 31 339 194 82 230 74 320 41 20 43 104 458
internal_value=0 -0.0437327 -0.00930911 0.0398832 -0.0478258 -0.020508 0.0271377 0.0233251 0.0157043 -0.0331451 -0.0513919 -0.0386103 -0.0359284 -0.014806 0.000544101 -0.00584165 0.00905975 0.0448579 0.0101178 0.0293892 0.0296686 0.0233068 -0.0215014 -0.0426277 0.0214831 0.038811 -0.0327553 -0.046959 -0.0277177 0.0142475 0.0382047 0.0359176 -0.053916 0.0298934 0.0306114 0.0218458 0.0474737 -0.0373461 -0.0204602 0.0359209 -0.0105052 0.0176003 0.0255857 0.0035251 -0.0493471 -0.0030807 0.0121495 0.00615372 -0.0142436 -0.0452175 -0.0390263 0.0316655 -0.0275334 -0.0320929 0.00922592 -0.0484639 -0.0234018 0.00821775 -0.0175184 -0.0282741 -0.0485448 -0.043922 0.0402687 0.00348779 -0.00445874 0.0450188 0.0379844 0.00343798 0.0203414 0.0331636 -4.37324e-05 0.0263822 0.0121183 0.0237736 0.0195588 0.0377394 -0.0197132 0.0291707 0.0227897 -0.0501831 0.0410568 0.0406787 0.0387123 -0.04247 0.0267719 0.0190797 0.0167048 0.00769018 0.0406891 0.0204647 -0.0305151 -0.0377218 0.0348458 0.0392308 0.0349506 0.0255271 -0.0470414 0.0423235 0.042742
internal_weight=0 5481.55 597.509 6013.39 4884.04 572.058 234.656 1389.77 943.537 362.853 4311.98 678.49 440.245 164.942 447.235 122.107 59.1546 4623.62 312.011 131.812 496.301 310.899 135.225 619.335 55.5131 1397.84 98.0443 240.746 66.5941 66.8977 446.237 352.181 3633.49 248.838 223.467 100.918 3225.78 60.229 47.9448 116.451 85.4731 226.537 246.68 39.8461 55.82 62.061 128.023 13.1133 28.6025 571.39 170.316 43.4392 108.146 102.233 27.0787 234.094 42.5098 33.4586 36.951 18.8896 275.303 146.08 185.402 24.508 21.9355 128.715 61.1563 21.2419 27.069 127.31 42.9633 98.5146 19.6962 12.044 119.37 122.548 15.361 78.9829 132.036 215.205 1151.16 1005.47 518.449 60.2792 62.8136 31.7179 99.1779 29.6471 96.7553 69.5307 34.8315 86.7014 218.188 115.38 27.0516 13.997 15.7153 31.0051 487.021
internal_count=46603 22016 2418 24587 19598 2307 958 5637 3818 1460 17291 2726 1769 665 1812 494 240 18950 1266 538 2006 1258 546 2486 226 5711 394 966 268 271 1819 1434 14565 1008 908 411 13239 242 193 476 346 920 1004 161 224 250 520 53 115 2293 684 177 436 412 110 939 172 135 149 76 1104 586 748 99 89 526 248 86 110 519 174 400 80 49 485 497 62 322 534 863 4707 4110 2122 242 256 129 403 120 396 283 140 348 892 468 110 57 63 127 1988
cat_boundaries=0 1 2 3 4 5 6 7 8 9 10
cat_threshold=4194560 2052 4195712 2048 35072 4194304 2101553 534660 1519682 70568
is_linear=0
shrinkage=0.03


Tree=5
num_leaves=100
num_cat=8
split_feature=8 8 2 7 6 7 7 8 8 6 8 2 0 7 5 6 8 0 6 8 0 2 7 7 5 0 8 2 13 8 8 5 2 8 5 7 8 5 5 6 8 6 5 6 13 5 8 2 7 6 7 7 5 5 8 6 5 2 7 6 6 2 7 8 0 7 8 5 6 5 8 8 6 8 7 8 5 2 7 8 8 0 7 8 7 5 8 5 2 8 6 7 8 5 8 5 7 7 5
split_gain=17858.5 1289.31 1018.1 683.523 331.097 260.161 259.267 172.722 151.417 129.176 125.201 94.4086 84.0169 78.4841 74.142 85.2664 73.0993 71.4538 57.8278 49.2194 47.4817 45.5415 36.4602 35.845 35.7794 33.221 49.7206 32.0853 31.3548 29.1635 28.9549 29.7359 23.8084 22.9638 21.708 21.006 20.6404 20.1778 19.9374 19.877 17.9347 17.6047 17.2754 16.8871 16.0204 15.404 15.0176 14.1315 17.0501 13.3234 12.9742 12.965 12.6925 12.6384 12.5805 12.0024 17.5343 11.9221 11.7501 11.2697 11.2642 11.1656 11.1514 10.7129 10.3123 15.1313 10.2951 9.83375 9.25029 8.85712 8.85096 8.79646 8.12219 8.08284 7.64012 7.38183 6.85815 6.34089 6.32545 6.28363 6.10318 6.06438 5.8883 5.70353 5.6761 5.40919 5.33762 5.30833 5.14268 5.14207 5.06399 5.32125 5.01612 4.83436 4.82941 4.65268 4.62061 4.61527 4.35991
threshold=-1.1349999999999996 0.54500000000000015 0.12500000000000003 2.0475000000000003 0.43850000000000011 0.16250000000000003 2.3125000000000004 -2.6349999999999993 -2.9849999999999999 0.41250000000000003 1.425 0.075000000000000025 0 2.2175000000000007 1.0000000180025095e-35 0.55550000000000022 -4.3449999999999989 1 0.50050000000000006 -0.16499999999999998 2 1.0000000180025095e-35 1.1875000000000002 2.1275000000000004 0.018500000000000006 3 -1.8849999999999996 1.0000000180025095e-35 4 -1.8849999999999996 -5.0349999999999993 0.11750000000000001 1.0000000180025095e-35 -0.13499999999999998 0.011500000000000002 2.1925000000000003 1.425 1.0000000180025095e-35 0.15650000000000003 0.51250000000000007 -4.5549999999999988 0.51850000000000007 0.045500000000000006 0.99050000000000005 5 1.0000000180025095e-35 -1.595 0.015000000000000001 1.1025000000000003 0.99850000000000005 0.89750000000000008 1.5275000000000001 0.22450000000000003 0.59050000000000014 -2.4249999999999994 0.37500000000000006 0.012500000000000002 1.0000000180025095e-35 0.16250000000000003 0.97950000000000015 0.99850000000000005 0.18500000000000003 -1.0000000180025095e-35 -4.2449999999999992 6 2.7525000000000004 3.3950000000000005 0.03450000000000001 0.053500000000000013 0.0045000000000000014 -5.2449999999999992 -1.2949999999999997 0.77550000000000008 -1.9749999999999999 -1.1474999999999997 1.2250000000000003 0.0015000000000000002 0.54500000000000015 3.1325000000000003 -3.8449999999999993 1.0650000000000002 7 1.0000000180025095e-35 -3.7649999999999992 2.9375000000000004 1.0000000180025095e-35 -2.4249999999999994 0.0085000000000000023 0.075000000000000025 -0.59499999999999986 0.51850000000000007 2.2525000000000004 -2.4849999999999999 0.38050000000000006 -2.5449999999999995 1.0000000180025095e-35 1.0425000000000002 0.8025000000000001 0.03450000000000001
decision_type=8 8 10 10 8 8 10 10 10 8 10 8 9 10 8 8 10 9 10 10 9 8 10 8 10 9 10 8 9 10 10 8 8 10 8 10 10 8 8 10 10 10 8 10 9 8 10 10 8 10 10 8 10 10 10 10 8 8 10 10 10 8 10 10 9 10 10 10 10 10 10 10 10 10 10 8 8 10 10 10 8 9 8 10 10 10 10 8 10 10 10 10 8 8 10 8 8 8 8
left_child=2 3 4 11 24 16 21 23 18 -5 12 20 27 29 15 -10 70 73 76 32 51 37 58 34 63 26 39 -8 67 52 -20 49 69 41 79 54 61 59 57 -18 -36 -24 -43 -14 45 -34 60 48 -22 -32 -33 -2 82 -42 -19 -27 74 -31 -13 -3 -17 90 -41 -1 65 -30 68 -21 -12 -11 -4 85 -50 -16 -57 97 -7 -72 -45 -6 -80 -46 -9 -25 -70 -15 -54 -86 -87 98 -23 -92 -26 -75 -58 -38 -40 -39 -49
right_child=1 6 5 9 7 8 10 13 14 19 66 22 43 71 17 46 25 35 30 28 47 36 33 83 92 55 -28 -29 64 38 31 50 44 -35 40 -37 95 75 96 62 53 42 -44 78 81 -47 -48 89 72 -51 -52 -53 86 -55 -56 56 94 -59 -60 -61 -62 -63 -64 -65 -66 -67 -68 -69 84 -71 77 -73 -74 93 -76 -77 -78 -79 80 -81 -82 -83 -84 -85 87 88 -88 -89 -90 -91 91 -93 -94 -95 -96 -97 -98 -99 -100
leaf_value=0 -0.002308845467653994 -0.051414929068993052 0.043074777097724413 -0.046498683752632275 0.046101820848724238 -0.049238855166275602 0.036236432822046284 0.0084195914812308023 -0.053373041506598905 0.031619090441334548 -0.055913152138668584 -0.043733901907169755 -0.044050347022353178 0.041439395079655897 0.031300220240660405 0.0079953423083125238 -0.043817992868520304 -0.0015231933173439508 0.046893348007251319 0.01947906128975407 -0.030701134347016639 -0.053382249407655673 -0.051049809086426839 0.049135650881430723 0.023230092531619676 -0.050429053318581621 -0.045311616679878645 -0.011626158137891656 -0.012291550906636944 0.031052542750951578 0.018443270326118585 -0.0092371352349641302 0.008380822661874808 -0.036517104553489492 0.045061411914566585 0.020690075571832622 -0.049918732965074999 -0.048889354610545589 -0.021985411508574706 0.0038734011666762022 0.025068116350149876 -0.0045611391582046721 -0.027856411698063029 -0.022265420186336975 0.026707795294893442 -0.028270182714566803 0.0099148184264582565 -0.010934931776656651 -0.035434131256721894 0.036631650992465382 0.022064619819511383 0.02404067264080138 -0.014118354845432493 -0.013505175952037577 -0.019897513611680642 -0.030773783087920382 -0.022770428892158228 0.011696248068972473 -0.034745042455453075 -0.021485080061766307 0.034307732930103807 -0.049949351265026233 0.030881338962301889 -0.046949043740852216 -0.01755580518302997 0.033656318023285565 -0.051041955462070791 -0.012912731234391709 -0.038603385356383919 0.0046721575395453031 0.029279713394892725 0.027448930526130212 -0.0012414888314383804 0.017842713909292693 -0.004735349082759582 -0.048326884258994549 -0.0067558255812530292 -0.005964398054420391 -0.018345943617869287 0.038831237756910539 0.0034200953953973613 0.0059954415094711413 0.033149896298094388 0.04592502081744608 -0.022067467961700775 0.034638847371461882 0.017048858446100781 -0.050500420950881891 0.0036602263827489006 -0.035591119526782518 -0.042186846215544263 -0.015255868249021431 -0.0093379315566579444 -0.012717944115435599 -0.037485005104601031 -0.053622231380899679 0.0014480406371820251 -0.023345838446127067 -0.035295292411327416
leaf_weight=4.931082382798194 39.504355162382126 13.456097066402434 16.483218431472778 31.4514170140028 298.8534926623106 6.4823569506406757 42.046160563826561 9.6088083088397962 12.481187105178833 169.40067605674267 21.416984528303146 258.7685099542141 25.939370080828667 540.07374206185341 48.397912353277206 17.061863154172897 4.9869123548269263 44.894495964050293 118.67121633887291 75.319309577345848 35.890490397810936 43.075729697942734 11.970418021082876 2116.1375744044781 9.8565931469202024 18.44672879576683 17.445996016263962 17.683141320943832 15.410434857010843 41.426844999194145 45.968572244048119 22.31012661755085 35.575751930475235 86.985065400600433 44.232406720519066 15.492306590080259 489.40681034326553 9.7103985846042615 13.677435308694838 28.727869153022766 81.740194901823997 78.138929486274719 45.366428717970848 87.194539710879326 61.649300217628479 14.175516113638876 38.342789635062218 19.4107009023428 6.7281497418880454 204.31930820643902 24.813562527298927 28.705772027373314 6.2103140056133297 8.1591408401727659 136.38080228865147 13.20023390650749 34.3303542137146 95.984305441379547 298.77955225110054 77.497105315327644 127.16991090774536 656.46078890562057 26.700853034853935 38.150610953569412 53.703485116362572 10.618411019444464 70.503869041800499 9.1934926807880384 101.46147060394287 12.084589406847952 9.0890042334795016 56.358227431774139 58.592414721846581 15.826340362429621 42.680078506469727 109.2814886868 7.4300004541873941 8.6530729830265027 24.814445644617081 204.22915661334991 21.09749348461628 43.775682002305984 189.28602041304111 814.25664059817791 47.326466545462608 77.500851765275002 19.945821687579155 6.9777055084705344 5.4082081168889991 61.821054100990295 303.50883863866329 7.486310586333274 6.9753255844116238 6.2112237513065329 61.810523808002472 1796.796629562974 16.066944703459743 23.421618476510048 10.476718977093695
leaf_count=20 159 54 68 126 1237 26 171 39 50 693 86 1039 104 2228 198 69 20 181 491 305 144 173 48 8786 40 74 70 71 62 169 187 90 144 349 183 63 1966 39 55 116 334 314 182 350 250 57 155 78 27 839 101 116 25 33 548 53 138 389 1199 311 520 2638 109 153 216 43 283 37 407 49 37 231 236 64 172 439 30 35 100 840 85 177 774 3372 190 318 81 28 22 248 1218 30 28 25 248 7227 65 94 42
internal_value=0 -0.0384721 0.0365047 -0.0154632 0.0427497 0.0115193 -0.0475286 0.0436551 0.0194635 0.0121805 -0.0264709 -0.0295998 -0.00989854 0.0330647 0.00752956 0.021578 -0.0135525 -0.00272939 0.032273 0.0158953 -0.013949 -0.050308 -0.0348289 0.0468323 -0.0271886 -0.0192263 -0.000987987 0.0188921 0.00240871 0.0223358 0.0342904 0.0292113 0.0224598 -0.0244696 0.0402932 -0.0118884 -0.0512211 -0.0373493 0.0127836 0.0117696 0.0293758 -0.016653 -0.0131842 -0.0206319 0.013762 -0.00176778 0.0267941 -0.0209237 -0.0141663 0.0333268 0.0072299 0.00768074 0.0293934 0.0215074 -0.0153702 -0.0259489 -0.0245727 0.0176042 -0.0389425 -0.0260938 0.0312348 -0.047548 0.0170228 -0.0416103 -0.0105436 0.00473365 -0.0410695 0.0142176 -0.0370083 0.0298486 0.027355 0.0392428 -0.00494587 0.0214179 -0.0110604 -0.0444508 -0.0273409 0.0121443 -0.0175079 0.04318 -0.00833479 0.0194272 0.0319817 0.0482491 -0.0342911 0.0402921 0.00948185 -0.0260222 0.0326674 -0.0305587 -0.0430504 -0.0415616 0.00966629 0.00906671 -0.0323427 -0.0528371 -0.00935948 -0.0312755 -0.0198196
internal_weight=0 5570.06 5873.88 1573.5 4699.07 1174.81 3996.56 4639.16 892.254 532.358 466.462 1041.14 218.775 1071.55 462.259 195.056 282.555 267.203 429.995 500.907 261.13 3530.1 780.009 3567.61 59.9136 248.33 77.8616 59.7293 164.245 392.206 416.083 297.412 336.662 222.461 637.214 196.768 3296.74 233.367 167.156 60.4156 134.132 135.476 123.505 159.046 155.176 49.7513 182.575 192.92 101.211 250.288 47.1237 68.2101 225.051 89.8993 181.275 170.468 152.021 137.411 557.548 90.9532 144.232 1010.53 55.4287 43.0817 79.7323 26.0288 247.686 84.5128 177.183 181.485 34.2253 679.341 65.3206 70.4355 55.8803 142.414 13.9124 17.7421 133.106 503.083 45.9119 105.425 198.895 2930.39 155.766 622.983 26.1561 54.3042 82.9091 91.7085 354.071 310.995 16.8319 22.0376 96.1409 2286.2 29.7444 33.132 29.8874
internal_count=46603 22404 24199 6340 19422 4777 16064 19181 3637 2159 1875 4181 881 4396 1873 794 1140 1079 1764 2033 1050 14189 3131 14785 241 1000 315 242 663 1597 1708 1217 1370 893 2627 792 13252 937 678 245 550 544 496 639 628 201 744 775 407 1026 191 275 919 367 729 685 611 558 2238 365 589 4059 225 173 321 105 994 342 711 742 140 2799 263 287 225 572 56 72 535 2077 185 427 813 12158 625 2568 106 218 340 368 1421 1248 68 89 386 9193 120 133 120
cat_boundaries=0 1 2 3 4 5 6 7 8
cat_threshold=4227712 4194584 6357124 4759824 2708110 2728977 6291598 4296073
is_linear=0
shrinkage=0.03


Tree=6
num_leaves=100
num_cat=3
split_feature=9 9 9 8 9 8 8 9 9 5 12 9 8 8 4 12 9 4 2 2 9 8 2 9 8 4 8 3 4 3 8 8 5 3 8 9 12 8 8 9 3 4 9 2 4 5 5 8 8 8 9 9 9 9 8 2 9 8 8 8 8 5 8 8 4 5 4 8 8 3 5 5 8 9 3 8 2 2 8 2 4 8 9 5 8 4 3 8 3 9 8 2 9 8 4 9 8 8 9
split_gain=21603.3 886.79 828.456 142.374 95.821 90.7199 56.0835 47.4621 47.3309 33.6613 32.2292 29.3692 25.6658 21.5209 19.4851 20.3949 19.3631 17.2629 16.6004 15.9107 15.6892 14.7532 13.7119 13.6814 13.0714 11.2362 11.1497 12.2072 10.6984 10.0073 9.76371 9.46113 10.672 9.16108 8.92432 8.65425 8.58288 8.2963 7.92517 10.2448 8.54456 7.34551 6.29158 8.52152 6.26335 5.88277 5.56805 5.41731 5.24102 5.19985 8.6419 5.10952 5.06923 4.98176 7.31082 5.38183 4.95328 4.9234 4.88491 5.95103 4.80122 4.78722 4.69078 4.56173 4.55689 4.37728 6.26367 4.60037 4.35247 4.1545 3.82864 3.55595 3.50444 3.47116 3.44821 5.56342 3.42286 5.55648 3.31112 3.23001 3.71181 3.16726 7.82491 5.89116 4.23823 3.16342 3.14978 3.13933 3.07734 2.94229 3.20698 2.76064 2.76054 4.54994 2.73867 2.68033 2.67371 5.59484 3.19449
threshold=-0.44049999999999995 0.30050000000000004 -0.87349999999999994 0.19500000000000003 0.6725000000000001 0.64500000000000013 0.69500000000000006 -0.60849999999999993 -0.085499999999999979 0.0085000000000000023 0 -1.0574999999999999 3.3950000000000005 -0.24499999999999997 0.39550000000000007 1 -0.7034999999999999 1.0000000180025095e-35 0.16500000000000004 0.34500000000000003 -0.72049999999999981 -4.1949999999999994 1.0000000180025095e-35 1.0000000180025095e-35 -0.93499999999999994 0.98450000000000004 -2.8649999999999998 0.79150000000000009 0.12750000000000003 0.94750000000000012 -3.1049999999999995 -2.3249999999999997 0.086500000000000007 0.98350000000000015 -3.5049999999999994 0.89450000000000018 2 2.9250000000000003 -1.7949999999999997 -0.89949999999999986 0.037500000000000012 0.98550000000000015 -0.55049999999999988 0.025000000000000005 0.58950000000000002 0.11450000000000002 0.29750000000000004 0.19500000000000003 -2.6649999999999996 1.425 -0.13749999999999998 -0.04349999999999999 0.24250000000000002 -0.8264999999999999 -3.1849999999999996 0.50500000000000012 0.52450000000000008 1.3050000000000004 0.97500000000000009 0.77500000000000013 -1.6749999999999996 0.99250000000000005 0.97500000000000009 -3.3949999999999996 0.0065000000000000006 0.033500000000000009 0.91750000000000009 -2.4249999999999994 -1.8849999999999996 0.026500000000000006 1.0000000180025095e-35 0.79250000000000009 -2.5749999999999997 -0.46249999999999997 0.49850000000000005 -4.1049999999999995 0.03500000000000001 1.0000000180025095e-35 1.8350000000000002 0.53500000000000014 0.46050000000000008 1.4850000000000001 -1.0124999999999997 0.047500000000000007 1.2250000000000003 0.92650000000000021 0.99150000000000016 0.88500000000000012 0.58550000000000002 -0.98849999999999982 0.19500000000000003 0.17500000000000002 1.0505000000000002 1.3050000000000004 0.86850000000000016 -0.78249999999999986 -3.9249999999999994 -4.2449999999999992 0.18350000000000002
decision_type=10 10 10 8 10 8 8 10 10 10 9 10 8 10 8 9 10 8 10 8 10 10 8 10 8 8 10 10 10 10 10 10 10 10 10 10 9 8 10 10 10 10 10 8 10 8 8 8 10 8 10 8 10 10 10 10 10 8 10 10 10 8 10 10 8 8 8 10 10 10 8 10 10 10 8 8 8 10 10 8 10 8 10 10 8 10 10 10 10 10 10 10 10 10 10 10 10 8 10
left_child=2 3 6 8 13 7 11 9 14 19 29 -1 16 56 21 31 -7 89 25 44 26 -2 86 33 35 42 95 -28 -8 -5 -22 72 -33 -12 -20 -6 52 51 -19 45 -41 85 43 -9 64 -40 -44 -27 69 58 -51 -35 61 55 -55 -21 74 -43 59 -31 63 68 -15 -23 -4 66 -17 -67 -10 -36 -62 -32 -16 -50 -3 -76 77 -54 -64 80 -24 82 -30 -84 -85 -25 -18 -88 -77 90 -13 -46 93 -26 -83 -11 97 -38 -98
right_child=1 4 5 10 24 12 28 18 36 20 23 17 -14 62 15 65 22 38 34 53 30 60 79 41 92 47 27 -29 81 49 71 32 -34 37 48 -37 96 -39 39 40 -42 57 46 -45 91 -47 -48 -49 73 50 -52 -53 76 54 -56 -57 -58 -59 -60 -61 70 -63 78 -65 -66 67 -68 -69 -70 -71 -72 -73 -74 -75 75 88 -78 -79 -80 -81 -82 94 83 84 -86 -87 87 -89 -90 -91 -92 -93 -94 -95 -96 -97 98 -99 -100
leaf_value=-0.051712398156506342 -0.019697562204715753 0.040711893299728893 -0.041828092277293429 -0.026545467771085914 0.043759977822540277 -0.033980887948802774 -0.052083247831263377 0.0050724618743033505 0.023249761471771317 -0.024380921032010002 -0.038566331788963154 -0.046568660452153965 -0.047726201129388732 0.019530798029934994 0.0050147125082677354 0.0032292870619389999 0.012836535843281663 -0.045903888776786028 -0.018616658342634037 -0.047191478560110203 -0.032062477627290281 0.014829274072974323 -0.047758974357245097 -0.00099123764930843586 0.031868455233717979 -0.037802844726426039 -0.0034893385994265017 -0.026722084840849956 -0.049746592650789921 0.017311066471694569 0.0065742427099319796 -0.011284306939576645 0.025725271099759035 -0.010352599450584117 0.035776744375780496 0.047628198539153829 0.029864974218243606 -0.044025354591853645 -0.040794350539336006 -0.0014894330134212499 -0.031029994736946311 0.019823209466570534 -0.0019369533913583348 -0.023886405167538316 -0.040625570576973115 -0.034239750077352089 0.019554960320506614 -0.0055899127979057335 0.010823040515571137 -0.017729681133466707 0.018905349133393614 -0.040158852507651381 0.033526073298950965 -0.041847235754164921 -0.0054769634501779735 -0.014742636197392011 0.039152046949808318 -0.013467438383851012 0.03061207635243747 -0.010134782076679045 0.021700082464729129 -0.0036678147120438264 -0.018062886577560507 0.028619848607168766 -0.021873536410685877 -0.00060567122390797941 0.018080196366990556 0.030551961041670794 0.013409308124297291 0.0059592649781303689 0.0014435648275186292 0.029466813840180427 0.033290799516245077 -0.0093479843782966129 0.014010100565401296 0.0083059833799702578 0.040161921495038666 0 0.01412061250875778 -0.0041034190390956023 -0.024726663003013363 -0.050895852471846782 -0.04305882969858741 -0.033776254629676872 -0.0079701802634899264 -0.031693393768812708 -0.024795859607701854 -0.0035738054559051329 0.033603788311514317 -0.052426265370438749 -0.026730081580034679 -0.024863949552340895 0.046201986564525663 0.0026633073854396019 -0.046706408412146593 -0.056841086582208128 0.030626912119218499 -0.0040755312558475292 0.038111348022229707
leaf_weight=272.33035692572594 7.4377044737339011 60.655326440930367 12.473865509033201 6.2270064651966086 701.09322479367256 141.31807851791382 2198.7579252272844 14.641681000590323 79.521508544683456 5.7207837700843811 21.437360942363739 39.514888748526573 65.693605095148087 29.26982769370079 10.038225263357164 42.060638263821602 7.469183847308158 108.71905435621738 8.965165823698042 6.9825530946254757 5.22149534523487 30.138435304164886 7.7249199151992789 5.9793258905410749 40.918153405189514 13.939767897129057 71.25294654071331 28.436265230178833 161.15773585438728 30.202580124139786 44.771745353937149 74.195202991366386 7.4238709658384314 66.142295062541962 12.871441707015039 3344.578581020236 16.575899630784988 8.4840568602085096 300.60470433533192 12.959434315562246 28.678388655185699 16.021891400218014 48.722635865211487 23.173512056469917 51.359904497861862 252.7088651061058 13.593017026782034 7.471235096454623 58.888289749622345 11.720849618315698 10.888916328549383 5.4597475826740256 10.686868116259577 5.2303947061300269 54.565540090203285 14.706032529473303 300.95384792983532 4.971542313694953 16.559748694300652 8.9339258223772031 18.303692400455475 9.3426344692707044 5.9587512463331205 98.087798312306404 81.741023227572441 4.9181303828954723 67.277233600616455 25.436271324753761 89.945440426468849 6.690801963210105 15.881292954087256 6.9581957906484595 6.6256307065486899 8.4605817049741727 15.29723100364208 4.8807059526443473 15.885191321372984 7.3425439298152915 4.9836844056844711 5.9943823963403693 53.645296171307564 526.99864785373211 95.547118723392487 23.364103317260742 8.2015319764614123 6.2156366109848022 7.7364531755447379 31.138356789946556 301.33683355152607 109.56393092870712 11.665282860398291 15.954336166381834 11.267839834094046 5.7046998292207709 310.5468512326479 5.4945526868104917 199.66046456992626 5.6502868086099651 85.293051317334175
leaf_count=1095 30 250 50 25 2918 567 8883 59 325 23 86 159 264 119 41 170 30 436 36 28 21 122 31 24 168 56 286 114 649 122 180 299 30 266 52 14008 68 34 1208 52 115 65 196 93 206 1016 55 30 237 47 44 22 44 21 219 59 1245 20 67 36 74 38 24 399 328 20 273 103 366 27 64 28 27 34 63 20 65 30 20 24 215 2127 384 94 33 25 31 125 1240 441 47 64 46 23 1250 22 815 23 350
internal_value=0 0.0393407 -0.0434119 0.0156205 0.0449753 -0.0179473 -0.0488266 -0.0113052 0.0207581 -0.0172997 -0.0061066 -0.0430175 -0.0309289 0.0348588 0.0130805 0.00750986 -0.0265416 -0.0402584 2.01189e-05 -0.0244348 -0.0069303 0.0208445 -0.0172099 -0.0145945 0.0467552 -0.00732366 -0.013497 -0.0102008 -0.0508081 0.00815436 0.00581917 -0.00324476 -0.00780683 -0.0211288 0.00934855 0.0469617 0.0267649 -0.0163048 -0.0381708 -0.0367312 -0.0219694 0.000974402 -0.00304472 -0.0126592 -0.0299013 -0.0378253 0.00278401 -0.0269054 0.0123149 0.0120724 0 -0.0128168 0.0181703 -0.0134993 -0.00889126 -0.0257999 0.0361176 0.0117481 0.0169754 0.0109555 0.0227488 0.0169203 0.0133066 0.0254393 -0.0246653 0.014295 0.0124136 0.0254689 0.018074 0.0259433 0.0124535 0.0098518 0.0167888 0.0082234 0.0336928 0.0323245 0.0297952 0.0200226 -0.00320591 -0.02583 -0.027883 -0.0483022 -0.045165 -0.039234 -0.0272847 -0.0172171 -0.00454283 -0.008016 0.0332169 -0.049294 -0.0422757 -0.0370523 0.0321152 0.028386 -0.0493626 -0.0415586 0.0310835 0.0211908 0.0329133
internal_weight=0 5973.87 5410.33 1146.97 4826.9 949.008 4461.32 628.288 927.728 410.87 219.245 1136.74 320.72 723.336 407.824 237.975 255.027 864.415 217.418 243.014 167.856 169.849 113.709 134.712 4103.56 121.542 110.905 99.6892 3324.57 84.533 56.9514 98.2829 81.6191 101.523 95.8763 4045.67 519.904 80.0861 703.67 594.951 41.6378 33.1884 100.131 37.8152 161.529 553.314 62.3157 21.411 86.9111 78.306 22.6098 71.602 212.724 81.4845 59.7959 21.6886 683.124 20.9934 55.6963 39.1365 162.411 178.81 40.2123 128.226 94.2149 139.692 109.338 30.3544 169.467 19.5622 34.185 51.7299 16.6639 67.3489 382.17 321.515 33.9146 18.0294 10.9424 67.3646 61.3702 1125.82 288.27 127.113 31.5656 12.195 46.344 38.8748 306.218 160.744 51.1802 67.3142 57.8907 46.6229 837.545 11.2153 307.18 22.2262 284.954
internal_count=46603 24803 21800 4659 20144 3811 17989 2524 3776 1649 883 4569 1287 2981 1652 963 1023 3474 875 975 674 689 456 542 17163 489 445 400 13420 341 229 397 329 408 386 16926 2124 322 2827 2391 167 134 403 152 648 2224 251 86 350 316 91 288 868 327 240 87 2818 85 225 158 659 729 163 521 378 566 443 123 691 79 138 208 68 271 1573 1323 139 74 44 270 246 4537 1160 511 127 49 186 156 1260 647 206 270 237 191 3377 45 1256 91 1165
cat_boundaries=0 1 2 3
cat_threshold=544290 2439177 2953237
is_linear=0
shrinkage=0.03


Tree=7
num_leaves=100
num_cat=3
split_feature=9 10 9 10 11 10 9 13 5 10 11 9 9 10 5 1 10 1 13 5 10 11 1 1 9 9 11 10 5 11 9 10 5 10 1 2 1 11 11 5 9 5 9 10 13 5 10 9 11 1 10 1 11 10 11 10 5 11 10 9 2 11 11 9 2 9 2 11 10 10 2 10 11 11 1 9 10 9 2 11 11 11 9 10 10 5 11 10 11 10 2 2 9 5 10 11 10 11 10
split_gain=20456.1 1984.63 854.193 667.507 324.46 101.889 123.562 94.2374 92.8405 89.674 68.7404 67.9676 59.4822 54.2236 51.0068 38.6924 42.3515 30.5375 24.8192 24.3786 26.5621 22.7913 20.5204 19.944 18.9837 17.0455 16.8512 19.6289 16.3388 16.0688 20.5529 15.998 18.7926 15.5757 15.5661 15.3532 14.7841 13.8507 13.7809 13.6239 13.5214 14.2359 13.4974 13.1537 13.0531 12.8854 11.7914 11.7663 11.4426 10.2077 9.86785 9.1483 9.03366 18.0357 8.92263 8.9153 8.70224 8.46196 9.32566 8.21703 8.09881 8.08785 7.77264 7.77215 7.55358 7.28285 6.91301 6.92771 6.70133 6.68522 6.64411 6.30205 6.90642 5.4643 5.6 5.43781 5.43029 5.3805 5.06145 5.05438 4.89302 4.86624 5.1609 4.83497 4.76279 4.62421 4.57578 4.46594 4.46091 4.3408 4.04507 3.93062 3.69294 3.51768 3.33743 3.33204 3.30103 3.28394 4.14204
threshold=-0.44049999999999995 0.62150000000000005 0.30050000000000004 0.64450000000000018 15.145000000000001 0.74650000000000005 0.75750000000000017 0 0.0075000000000000006 0.8155 19.615000000000006 -0.72049999999999981 -1.0054999999999998 0.85550000000000004 0.018500000000000006 7918700.5000000009 0.65450000000000019 7579896.5000000009 1 1.0000000180025095e-35 0.93250000000000022 9.8475000000000019 7579896.5000000009 7508251.0000000009 0.12250000000000001 0.86750000000000005 15.655000000000003 0.72050000000000003 0.018500000000000006 10.585000000000003 -1.0254999999999999 0.5415000000000002 0.0035000000000000005 0.44550000000000006 7579896.5000000009 0.015000000000000001 189867382.50000003 23.050000000000004 7.7060000000000022 0.010500000000000001 -0.73649999999999982 1.0000000180025095e-35 -0.55049999999999988 0.70750000000000013 2 0.0075000000000000006 0.65450000000000019 -0.11349999999999999 10.105000000000002 117251707.00000001 0.83450000000000013 48796050.500000007 22.650000000000002 0.89350000000000007 23.350000000000005 0.12350000000000001 0.17850000000000002 18.105000000000004 0.98550000000000015 0.89450000000000018 0.91500000000000015 17.155000000000005 9.4950000000000028 0.38250000000000006 0.115 -1.0034999999999996 0.03500000000000001 25.650000000000002 0.95850000000000002 0.66350000000000009 0.075000000000000025 0.25750000000000006 14.175000000000002 14.715000000000002 150663194.50000003 -0.84049999999999991 0.39250000000000007 0.52450000000000008 0.22500000000000003 18.105000000000004 19.165000000000003 15.975000000000003 0.59450000000000014 0.72050000000000003 0.49850000000000005 0.017500000000000005 8.2215000000000007 0.74650000000000005 14.175000000000002 0.82050000000000012 0.18500000000000003 0.115 -0.75249999999999984 1.0000000180025095e-35 0.48650000000000004 13.305000000000001 0.8155 8.0475000000000012 0.35150000000000009
decision_type=10 10 10 8 10 10 10 9 10 10 10 10 10 8 8 2 10 2 9 8 10 10 2 2 10 10 10 8 8 10 10 10 10 8 2 10 2 10 10 8 10 10 10 10 9 10 10 10 8 2 10 2 10 10 10 10 10 10 10 10 8 10 10 10 10 10 8 10 8 10 10 10 10 10 2 10 10 10 10 10 10 10 10 10 10 10 10 10 10 10 8 8 10 8 8 10 8 10 10
left_child=1 11 3 7 8 6 15 49 12 14 26 33 21 18 40 81 63 23 45 20 42 86 76 39 35 52 93 28 -28 -10 95 62 54 75 -8 44 38 88 -14 -9 83 61 64 -40 -15 51 -16 85 84 55 -23 -12 -7 77 -33 91 -48 -22 -59 80 97 -42 -19 90 -11 -21 67 -20 -37 -32 -44 -57 -73 -51 -75 -1 78 89 -13 -67 -36 -4 -83 -6 -35 -29 -3 -43 -18 -54 -17 -2 -50 -5 -65 -31 -68 98 -24
right_child=2 4 5 10 9 25 34 17 29 19 13 22 36 24 46 16 37 31 66 65 57 50 60 -25 -26 -27 27 47 -30 30 69 32 -34 48 59 68 -38 -39 43 -41 41 87 70 -45 -46 -47 56 -49 92 73 -52 -53 53 -55 -56 71 -58 58 -60 -61 -62 -63 -64 94 -66 79 96 -69 -70 -71 -72 72 -74 74 -76 -77 -78 -79 -80 -81 -82 82 -84 -85 -86 -87 -88 -89 -90 -91 -92 -93 -94 -95 -96 -97 -98 -99 -100
leaf_value=-0.051255695679051951 -0.032184221626853471 0.029222871963127679 0.04404833341493191 0.037587943947187688 -0.046835888558240509 0.044719352332667939 0.048104218400408003 -0.037599989193618275 0.051654729041932225 -0.024579000690540379 -0.0053362764115128386 -0.035423165312157244 0.040786858985345474 -0.0039260641366775061 -0.036252839972308916 -0.029977582894769112 0.046587637154936391 -0.02442755563527458 0.020592832455220308 -0.0087185044288897902 0.032582988593405193 -0.043790025364875355 -0.034934909626235022 0.047873922136376479 0.039152097107401126 0.047005022478427888 -0.017189454541466337 0.020777052210977524 0.044672963827436851 -0.022202154057005079 0.0098349883680886145 -0.018734739063723475 0.02648531489714593 -0.041554145950081257 0.034206512959778078 0.026282892497904858 0.056197067804371593 -0.014596893769951788 -0.006122442448455747 0.018355758096762327 -0.00043541790295237542 -0.0092310143339833367 -0.0039461614824110825 0.019522410467667478 0.019466273319461186 0.028209902571872898 0.00085447765160573256 0.039651539407977249 -0.047491053763110032 0.006169638388872435 -0.0014552575370858332 -0.031767679880697487 -0.0069527660405630364 0.041796226569434665 -0.056182233807960232 0.029851698169239022 0.035242042026900587 -0.0011201461759771014 0.031089675907484921 0.039416601676806981 -0.019099909629643627 -0.035535435743762452 -0.042773658932098245 0.0042332546709920055 -0.0070280700570950197 0.037540526231413227 0.021954183598388306 -0.013193600633515903 0.047807745030393874 0.042789061347603116 0.034257547110077537 0.025910817019534654 0.00067804231374169518 -0.043101771403562174 -0.0058924262011951899 -0.044908737252727621 0.0086026119319984138 0.031033853991256664 0 0.014481936878602431 0.014911384557493048 0.0025755391045378345 0.041996267473349204 -0.03388365563939226 -0.023845346322186871 0.044400399123314734 -0.0052655001468419407 0.027036531850813058 0.026264309236672972 0.020772234840798921 0 0.00040710002535488722 -0.027304265678150554 0.04576901504859085 -0.0078107023579706437 0.010285829038834201 0.050197490611625421 -0.040668912125090918 -0.0072370099851864766
leaf_weight=3907.0824199616909 4.9573540538549397 6.7360533624887449 33.984896436333656 93.30851686000824 58.162378787994385 646.35339105129242 204.27591013908386 9.6849421560764313 85.709216102957726 64.332757711410522 22.414700388908386 7.9673418551683444 19.356576815247536 29.37582790851593 4.9729264676570883 12.789747908711435 19.507622018456459 26.898387208580971 14.959414139389994 6.7345957159996024 11.435021325945852 22.877409964799885 22.219852194190029 5.7995045185089102 79.10117481648922 3054.8359564989805 12.80181407928467 62.501158997416496 5.1348863691091529 5.4679772704839689 6.7183274477720252 25.799414306879044 6.6813809424638739 26.442137569189072 27.137375682592392 44.013824447989464 9.7169220745563489 5.342494085431098 23.878286600112915 6.1419541686773309 7.2068445384502402 6.4643790721893293 10.699682012200357 69.87900410592556 91.558801829814911 5.3755813390016547 20.15501639246941 119.00378280878067 247.20723950862885 8.6556628346443194 6.480466052889823 25.511526733636856 6.561671361327174 324.62573650479317 7.4608564078807822 17.733383670449257 9.6876520216464979 46.326461598277092 9.4665104150772077 217.85386447608471 21.454705953598022 36.657108798623085 139.37893456220627 63.713632136583328 34.662498444318771 15.664272040128706 10.787336602807047 8.1663680374622327 20.328154325485229 47.872293397784233 6.1980915367603293 14.032305791974066 31.321900367736816 6.7052172869443885 8.1743041425943357 152.3949493765831 9.9151253551244718 48.3812175989151 6.711801141500473 20.948178023099899 23.258503288030624 6.8023463785648328 5.2997944355010986 61.269261956214905 34.4427260607481 8.8260834813117963 6.4726526141166687 5.2258758246898651 24.651855751872063 19.109581813216209 5.6477664262056342 8.6810411661863327 10.458368405699728 156.05386751890182 30.284723162651062 5.2324962913990021 6.8417203426361075 182.81164798140526 6.7274826169013968
leaf_count=15842 20 27 142 382 234 2700 863 39 345 258 91 32 78 119 20 52 81 108 61 27 46 92 89 24 326 12933 52 254 21 22 27 104 27 107 113 179 39 22 96 25 29 26 43 281 373 22 81 489 999 35 26 103 27 1357 30 72 39 186 38 916 86 147 560 261 139 63 44 33 83 193 25 57 127 27 33 612 40 202 27 84 97 28 22 246 139 36 26 21 102 79 23 35 42 640 124 21 28 733 27
internal_value=0 -0.0422853 0.0384844 0.015192 0.00289527 0.0440575 0.0332606 -0.0209279 0.0260139 -0.013872 0.0297197 -0.049621 0.0104373 0.0198398 -0.0279885 0.0139503 0.00699802 -0.0308494 0.000247634 -0.000764055 -0.00556836 -0.0199982 -0.0345383 0.00158806 0.0267927 0.0458466 0.0374347 0.0309875 0.000832357 0.0430052 0.0314298 -0.0357539 -0.018391 -0.0505062 0.0417424 0.0214484 0.0210271 0.0300344 0.0178441 -0.0157989 -0.0345785 -0.0220574 -0.0142653 0.0129669 0.0150505 -0.0122807 0.00507766 0.0338109 -0.0438921 0.00426338 -0.0346352 -0.0195658 0.0424455 0.0387222 -0.0276335 0.0100016 0.0123368 0.00938531 0.00443922 0.0368405 -0.037288 -0.029865 -0.0398696 -0.0031758 -0.0184976 0.0193757 0.0158034 0.00854327 0.0333109 0.0388531 0.0102805 0.0147652 0.00865644 -0.0124446 -0.0233388 -0.0510214 -0.0082327 0.0250999 -0.019709 0.0246373 0.0254898 0.0381239 0.0206305 -0.0403129 -0.0317415 0.0239074 0.0124033 0.00705226 0.03555 0.0135948 -0.0208205 -0.0117049 -0.0467137 0.0427662 0.000314935 -0.0062502 0.0337056 -0.0390898 -0.0287201
internal_weight=0 5388.5 5924.59 1144.17 752.667 4780.42 680.551 328.107 316.398 436.27 816.065 4635.84 165.397 358.434 209.801 208.025 161.938 227.845 94.0566 226.468 183.121 42.5666 257.808 21.6264 264.378 4099.87 457.63 208.268 17.9367 151 65.2911 206.219 39.9417 4378.03 472.526 185.277 122.831 49.502 113.114 15.8269 174.986 55.5542 115.893 93.7573 120.935 53.3018 34.8156 190.331 318.55 100.261 29.3579 47.9262 1045.03 398.678 33.2603 76.726 29.8427 67.228 55.793 268.25 233.214 43.864 166.277 112.436 98.9953 43.347 40.7548 23.1258 64.342 54.5906 16.8978 63.0876 45.3542 23.5352 14.8795 4059.48 24.5943 74.0525 14.6791 36.6125 50.3959 46.087 12.1021 119.432 60.8849 71.3272 13.2087 11.6903 44.1595 25.6713 18.4375 13.6384 257.666 249.362 93.9984 10.7005 17.6291 211.759 28.9473
internal_count=46603 21800 24803 4659 3025 20144 2846 1323 1273 1752 3336 18775 665 1462 843 857 665 917 382 909 735 171 1034 88 1080 17298 1874 852 73 608 263 829 161 17741 1989 754 494 205 455 64 703 223 465 377 492 216 140 779 1287 406 118 194 4365 1665 134 311 120 270 224 1126 935 176 668 460 397 174 166 94 262 220 68 256 184 95 60 16454 99 308 59 147 210 192 50 480 246 290 53 47 183 106 75 55 1041 1022 385 43 72 849 116
cat_boundaries=0 1 2 3
cat_threshold=35076 364907 2105392
is_linear=0
shrinkage=0.03


Tree=8
num_leaves=100
num_cat=0
split_feature=9 9 9 9 9 9 5 4 7 6 5 9 7 4 6 7 2 9 6 7 9 5 9 6 2 2 7 5 6 9 9 7 2 6 11 5 4 6 4 9 6 11 11 9 7 7 9 7 5 9 9 7 4 9 11 7 2 11 2 6 7 7 7 6 5 11 6 9 4 6 11 7 4 5 5 4 11 11 2 7 2 5 4 6 2 4 4 4 5 2 11 11 7 4 2 4 6 4 2
split_gain=19390.1 823.019 756.653 91.9413 83.5591 73.0835 36.8074 27.8718 22.0902 20.1757 18.7391 15.6602 15.4901 13.0842 12.8702 12.0488 11.7168 11.6163 10.8998 11.7556 10.5862 9.777 9.74618 9.53429 15.9636 8.89478 8.62764 7.77617 16.3522 9.01295 7.68972 7.54831 6.80543 6.7923 10.5889 6.7001 6.62325 6.29668 6.15828 6.11808 6.3147 5.76829 6.04028 5.73094 5.70754 8.41084 6.08152 5.60603 5.55682 5.3825 5.36737 5.29077 5.69856 5.27342 5.51478 5.05949 4.97865 4.85754 4.8222 4.68917 4.67702 4.57713 4.28026 3.94711 3.78166 4.37419 7.40473 3.69806 3.57238 3.53545 4.25569 4.16159 3.47305 3.37581 5.09078 3.2297 3.19416 3.12681 3.45473 3.0796 3.46043 3.84263 3.37481 3.78228 5.56756 2.91237 5.99898 2.80131 2.58998 2.44272 2.41064 2.61264 2.34675 2.15759 5.46908 2.04427 1.99797 1.99352 1.93008
threshold=-0.44049999999999995 0.30050000000000004 -0.87349999999999994 0.6725000000000001 -0.16349999999999995 -0.7034999999999999 0.0025000000000000005 0.18050000000000002 2.9925000000000006 0.51850000000000007 0.0065000000000000006 -0.89249999999999996 0.47250000000000003 0.0035000000000000005 0.54550000000000021 0.8025000000000001 0.10500000000000002 0.89450000000000018 0.53850000000000009 2.5625000000000004 0.15450000000000003 0.032500000000000008 -1.0544999999999998 0.99850000000000005 0.68500000000000016 1.0000000180025095e-35 3.7025000000000006 1.0000000180025095e-35 0.41250000000000003 0.063500000000000015 -0.5894999999999998 2.3025000000000007 0.055000000000000007 0.50550000000000017 12.535000000000002 0.79250000000000009 0.061500000000000006 0.53250000000000008 0.36950000000000005 0.52450000000000008 0.65950000000000009 1.9255000000000002 15.395000000000001 -0.60849999999999993 1.2725000000000002 2.0825000000000005 -0.35049999999999998 2.3625000000000003 0.34650000000000009 -0.62849999999999995 -0.84049999999999991 0.34250000000000008 0.016500000000000004 0.52450000000000008 26.050000000000004 -0.58249999999999991 0.015000000000000001 18.905000000000005 0.53500000000000014 0.85750000000000004 1.7825000000000002 1.7025000000000003 0.93750000000000011 0.99050000000000005 0.023500000000000004 24.450000000000003 0.99950000000000017 -0.50849999999999984 0.023500000000000004 0.99750000000000016 12.445000000000002 -0.20249999999999999 0.89950000000000008 0.54050000000000009 0.74250000000000005 0.99950000000000017 15.475000000000003 15.895000000000001 0.41500000000000004 2.2525000000000004 0.20500000000000004 0.19950000000000004 0.06950000000000002 0.90750000000000008 0.03500000000000001 0.97750000000000015 0.72350000000000014 0.98350000000000015 0.0015000000000000002 0.44500000000000006 15.065000000000003 13.215000000000002 3.8675000000000006 0.44450000000000006 0.24500000000000002 0.99150000000000016 0.99950000000000017 1.0000000180025095e-35 0.075000000000000025
decision_type=10 10 10 10 10 10 8 8 10 10 10 10 8 8 10 10 10 10 10 10 10 8 10 8 8 8 10 10 10 10 10 10 10 10 10 10 10 10 10 10 10 10 10 10 8 10 10 8 10 8 10 8 8 10 10 10 8 8 10 10 8 8 10 10 8 10 10 8 10 10 10 8 10 10 10 10 10 10 8 10 8 10 10 8 10 10 8 10 8 10 10 10 10 10 8 10 10 10 10
left_child=2 4 11 26 7 10 9 31 27 -7 18 13 43 97 -9 41 25 37 -4 58 64 44 -15 32 68 -14 39 28 -6 61 -18 36 72 35 96 -24 69 -5 50 77 -41 -8 55 -11 46 -46 -16 76 57 -34 89 52 -52 54 -28 -43 -49 98 75 -53 -36 -30 -31 -60 65 66 -10 -45 -25 70 -2 -71 -17 93 -75 -20 -23 90 87 80 82 -82 -13 -84 -85 86 -22 -79 -38 -12 91 -3 -39 -29 -95 -67 -35 -1 -40
right_child=1 3 5 17 8 6 15 14 20 12 38 79 16 22 21 23 30 -19 19 -21 85 47 33 24 -26 -27 53 73 29 62 -32 -33 49 34 60 -37 88 92 48 40 -42 42 -44 67 45 -47 -48 56 -50 -51 51 59 -54 -55 -56 -57 -58 -59 63 -61 -62 -63 -64 -65 -66 95 -68 -69 -70 71 -72 -73 -74 74 -76 -77 -78 78 -80 -81 81 -83 83 84 -86 -87 -88 -89 -90 -91 -92 -93 -94 94 -96 -97 -98 -99 -100
leaf_value=-0.050344736030537601 -0.0044950017501815438 0.037573313616983406 -0.048742673877063152 0.0054248457375714746 -0.031517358363612656 -0.049643093976127713 -0.008318850697604685 -0.035225623623229022 -0.024387440153646807 -0.0080825732176389702 -0.029486792209800165 -0.0017265735844234876 -0.012092672326901048 -0.048120696102737261 -0.0057452917916357028 -0.01702681795702719 -0.016725527745481646 0.045739946627742119 -0.028291552769544696 -0.045774615043206054 0.027520452443642446 0.01148881819235697 -0.049546411737480978 -0.01050181163294016 -0.041237940274555678 -0.026809403017172505 0.018069766316294197 0.033738585969281649 0.02336812462769805 0.036662105963161842 0.001481621163960714 -0.0098483789963370975 -0.02235868788950995 -0.042196281452807918 -0.037813898394586723 -0.017425873792817698 0.020801427808796374 0.042311403145803381 -0.042715661004462398 0.006600275199097865 0.03840637555598047 0.046084722819893752 -0.010204315697703793 0.02924206839237466 -0.012169203045726289 0.0005989260442601324 0.015894276700404653 0.014711440527390053 -0.0094300142260073244 0.0059749497214804615 0.0097082309667008235 -0.034657768474617372 -0.022976562166056501 0.029482405462916871 -0.016226491004493401 0.015432875434841037 -0.019159659852582271 -0.0050430082670373036 0.0044816629942471499 -0.010454479069929823 -0.044182412111221647 0.013325257839095895 0.024257118296475231 -0.020144610320307729 0.020720315106309676 0.0012072490303553164 0.010130927732132712 0 0.0084541224129984199 -0.0057070552102529678 0.022579545511236351 0.021860869503847934 -0.042512907640689643 -0.0033873306810780993 0.030984858776931405 -0.0055380890332782113 0.02901178228371493 0.025128405139871236 0.042136386107186459 -0.048317634431629772 -0.041050345390331713 -0.015076189479060106 -0.047319126715719265 0.0028026895785251572 -0.032175992952430295 0.025598553585778391 -0.012099784920787343 0.031912166781186586 0.041209482976450482 -0.0074466481439428283 0.04555238339687652 0.025590996189223641 0.036194292410744927 0.02967646486728983 0.010458273932738486 -0.018002682806902461 -0.045962576454160346 -0.04764382060482545 -0.026381022273341371
leaf_weight=769.94294466078281 14.809751167893412 55.205599457025528 25.992355361580849 4.608569622039794 4.9505719542503348 14.679066762328146 10.685859218239782 8.7109266370534879 6.1891265809535971 12.927788853645326 21.078205645084385 6.4420737773180035 62.719280704855919 908.7980083823204 18.316274002194405 14.677653521299364 38.83049151301384 3297.5108654499054 197.02964593470097 30.594451084733009 6.775071814656255 29.773832976818085 268.67583724856377 9.9421848207712156 6.7292553484439841 95.659886553883553 18.367095649242405 80.417665794491768 66.185547530651093 32.349183306097984 44.193381562829018 8.1455212384462339 8.9604457318782789 235.97523853182793 377.39581005275249 6.6375791132450095 11.782801479101183 629.19054280221462 18.608863651752472 6.0644129365682593 270.54562717676163 5.4208538383245459 6.9387272745370856 10.163418933749197 68.202775105834007 143.04757092893124 30.81487774848938 6.8967228382825825 14.89626884460449 16.875315010547641 20.090112134814266 8.4569386243820173 5.965877264738082 31.755790263414383 5.1272394508123389 43.495305195450783 8.1853946149349213 5.7259818464517585 6.951785519719123 48.464915201067924 176.11935637891293 117.56041695177555 162.99311186373234 30.051511734724045 8.7678439766168577 7.3835520148277309 39.46936996281147 6.4331949651241329 67.481418713927269 5.2023179233074188 7.6356588006019583 49.205514207482338 7.9660892635583869 7.3345265835523588 7.5535518825054169 6.2199102789163581 14.520767286419867 122.95875677466393 20.622515127062798 10.651790782809256 28.921901881694794 7.1807897090911856 5.9272731244564056 6.4569340795278611 10.172492146492003 32.942362114787102 6.3471366465091714 129.03462541103363 14.867881342768667 6.4552315771579734 23.487236320972443 30.52588415145874 85.675548553466797 82.687482371926308 16.886571750044823 13.549572810530661 855.77648006379604 738.35996766388416 15.361513137817381
leaf_count=3148 60 230 105 19 20 59 43 35 25 52 85 26 252 3701 74 59 156 14115 793 123 28 121 1094 40 27 384 76 331 271 134 178 33 36 961 1532 27 48 2666 75 25 1136 22 28 41 275 579 125 28 60 68 81 34 24 133 21 176 33 23 28 195 714 480 672 121 36 30 161 26 272 21 31 201 32 30 31 25 59 511 86 43 117 29 24 26 41 136 26 538 61 26 98 127 363 340 69 55 3491 3015 62
internal_value=0 0.0376781 -0.0412378 0.0431932 0.0147935 -0.0168903 -0.00873803 0.00453867 0.0212298 -0.0156361 -0.0254292 -0.0464585 -0.0137318 -0.0466986 0.000125298 0.00115007 -0.0162416 0.0449612 -0.0299547 -0.0280909 0.00953073 0.00112795 -0.0454478 -0.00406273 0.00202242 -0.0210305 0.0332242 0.0236732 0.0211311 0.0218493 -0.00703467 0.0174661 -0.0146223 -0.0441745 -0.0433902 -0.0488005 0.0196611 0.0413711 -0.0172388 0.0341941 0.0377256 0.011548 0.0154157 0.00666609 -0.00137247 -0.00352337 0.00779251 0.0120849 -0.0255364 -0.00390384 -0.0130601 -0.00914678 0.00195719 0.0215 0.0103741 0.0191387 -0.00353028 -0.0314044 -0.0257747 -0.0142552 -0.0398674 0.0169879 0.0263768 -0.0154549 0.00254406 3.27981e-05 0.005271 0.018236 0.00595792 0.0150311 0.00478625 0.0191642 -0.0265361 0.0286305 0.0141611 -0.0276162 0.0174436 0.031602 0.0297199 -0.0325489 -0.0297224 -0.0361169 -0.0213912 -0.0268059 -0.0186436 0.0208184 0.00833546 0.0286454 0.0326077 -0.0245417 0.0361834 0.0334389 0.0415971 0.0297885 0.0264825 -0.0111926 -0.0451625 -0.0490339 -0.0356947
internal_weight=0 5871.14 5360.16 4730.68 1140.46 946.723 484.78 440.119 700.343 285.607 461.944 4413.43 270.927 4337.68 328.469 199.173 241.403 4016.99 296.84 270.847 121.424 319.758 2829.38 132.632 84.1529 158.379 713.695 578.919 384.039 379.088 83.0239 111.649 48.4795 1920.58 1645.27 275.313 103.504 719.475 165.104 658.445 276.61 66.5407 55.8549 29.5244 260.381 211.25 49.1312 59.3767 54.5926 25.8358 110.511 82.9778 26.056 55.2501 23.4943 48.9162 15.0821 39.6964 240.253 56.9219 553.515 183.746 195.342 37.0033 75.3595 66.5916 45.6585 16.5966 77.4236 76.8532 22.4454 54.4078 22.6437 194.88 14.8881 203.25 44.2946 381.835 272.616 75.7533 65.1015 36.1027 28.9988 22.5567 16.6294 46.0646 13.1222 251.993 26.6507 27.5334 109.219 85.7315 714.866 179.992 99.5741 20.9331 1091.75 1508.3 33.9704
internal_count=46603 24803 21800 20144 4659 3811 1951 1784 2875 1148 1860 17989 1089 17683 1329 803 970 17163 1195 1090 497 1294 11520 534 339 636 2981 2378 1577 1557 334 455 195 7819 6698 1121 422 3048 665 2751 1161 269 226 119 1053 854 199 241 220 104 445 334 105 230 97 198 61 160 967 229 2246 751 806 149 307 271 186 67 312 313 91 222 91 801 61 818 180 1590 1135 306 263 146 117 91 67 190 54 1049 109 111 455 357 3029 740 409 85 4452 6163 137
is_linear=0
shrinkage=0.03


Tree=9
num_leaves=100
num_cat=0
split_feature=10 8 8 10 1 10 5 4 8 8 8 8 10 10 6 11 10 5 8 11 8 1 10 8 6 8 10 11 8 10 11 10 6 10 1 1 10 4 11 4 8 8 6 4 4 11 11 4 10 5 1 8 11 8 1 5 4 5 6 1 4 10 5 8 8 10 5 10 1 1 1 8 6 10 5 4 11 6 11 10 11 1 1 1 11 4 10 10 1 11 10 1 8 8 1 10 10 8 8
split_gain=17562.2 1715.94 1664.61 450.18 222.987 175.297 152.049 130.957 115.994 99.0942 89.4189 82.205 75.3991 69.4283 58.375 54.4252 40.6495 52.0961 39.1051 35.474 32.2499 29.2439 28.0213 26.7312 23.9236 22.9963 19.69 25.9123 27.6544 19.667 19.0988 19.0241 18.5708 18.3359 20.223 28.2538 17.4919 17.0276 16.9571 16.1123 15.9636 15.022 12.4486 12.4023 12.3965 12.3859 11.5044 11.4539 10.9532 39.7574 10.4787 10.4129 12.0789 10.2565 9.81634 9.31505 9.11394 8.91261 8.44805 8.17723 8.10839 10.9365 7.86643 7.69023 7.4718 7.35093 7.21287 7.14573 6.99718 6.70219 6.40417 9.90346 6.26458 6.19782 6.10414 6.06216 6.05359 5.90912 5.90144 5.70739 5.4411 5.38702 4.96824 10.3105 4.68457 4.65782 5.62639 4.61153 5.05843 4.54086 4.47839 4.16763 4.12841 4.08274 4.06746 3.92236 3.67701 3.58583 3.27917
